1693 200
chief -0.0178207 0.0946282 -0.122423 0.0579767 -0.0249049 -0.0155141 0.00341789 -0.117333 -0.0621324 0.0619348 -0.0341982 0.00940356 -0.00130513 0.0082118 0.087808 -0.0261937 -0.032383 -0.0476932 0.0113059 0.000152509 -0.0907361 -0.00110501 0.0614959 0.0938346 0.121106 -0.146052 0.0495653 -0.116209 0.00802652 -0.142564 -0.0317999 -0.0192987 -0.0745071 -0.0832848 -0.0348259 0.00908981 0.0641491 0.130535 -0.0324092 -0.0387632 0.0143229 0.191525 -0.0492491 0.0428582 0.000580952 0.0794929 -0.0262454 -0.068318 0.0199217 0.0242367 -0.0551256 -0.0392798 0.00505985 0.0894405 0.0542717 -0.0502248 -0.0593442 0.0123831 -0.07198 -0.153261 0.015606 -0.113241 0.110474 -0.0482396 -0.0677411 -0.0637282 0.106887 -0.0528768 -0.0991973 0.0160949 0.00928643 -0.0478296 0.0411039 -0.0256284 0.0307778 -0.0789365 0.0794449 -0.0780833 -0.0176773 -0.137499 -0.0231173 0.00134864 -0.137206 0.0368761 -0.0413112 0.0214224 -0.0877465 -0.0720881 0.0126977 -0.00211381 -0.0247968 -0.0700673 0.049965 0.067742 -0.0596574 -0.00310368 0.0432976 0.013337 0.0344077 0.212923 0.0217014 0.167194 -0.0173939 -0.0728765 -0.0736521 -0.0596013 -0.00619308 0.0518909 0.110904 -0.00456796 -0.0904492 -0.0115503 0.0177005 -0.125297 0.0485555 0.161187 -0.144896 -0.0519512 0.042894 -0.124737 -0.0830374 0.0520386 -0.0270094 0.0618609 -0.0363994 0.00886291 -0.0633139 0.0925592 0.0661393 -0.00785803 -0.0653555 -0.0667733 0.00984593 0.0699706 -0.0940597 -0.089755 -0.0655697 0.0442985 -0.0482944 -0.120275 0.0132965 0.0521959 -0.00179593 -0.0807105 -0.00889258 0.0394751 0.0474885 -0.0280499 0.0289252 -0.0559183 -0.00306264 -0.176386 -0.0765343 -0.0369314 -0.0295119 -0.00766842 -0.0601425 0.0629887 -0.078265 -0.0102273 0.0913988 0.0107929 -0.0397837 0.0502566 0.0664164 0.0832495 -0.059072 0.00018239 -0.0232453 -0.0920133 0.0500001 0.0349848 0.027213 0.119945 -0.0365049 0.0477591 5.31251e-05 -0.0244682 0.0265511 -0.0459647 0.0269433 0.0276476 -0.0445934 -0.100907 -0.155677 0.0375335 -0.0207479 0.0841336 0.0566632 0.056515 0.0384313 0.0705914 0.0340034 -0.023216 0.0953716 -0.125274 -0.0914538 -0.0831334 0.144097 0.0454462
buoyant -0.0456155 -0.0806771 -0.0302158 0.0381592 -0.0700522 0.019491 -0.0113833 -0.032876 0.0157317 -0.0508979 -0.00928973 -0.0548262 0.0769032 -0.00263341 0.0610529 0.179631 -0.0649051 0.0333405 -0.0261305 -0.10016 0.0178108 0.105715 -0.113444 0.10325 -0.0369676 -0.0720494 -0.0492154 -0.075708 0.140749 0.0436442 -0.105394 0.0138859 0.0456197 0.0241653 0.0316638 -0.0781948 -0.018143 0.0516233 -0.149162 0.104146 0.0445404 -0.0424385 0.0403098 -0.0201438 -0.0163338 -0.0536705 -0.0405208 -0.00491525 0.0140855 -0.060525 -0.106692 -0.0855263 -0.0661817 -0.0801043 -0.148369 -0.119483 -0.0294613 0.0685203 0.121903 -0.0371367 -0.0994976 0.0482315 0.0920952 0.0364047 0.0410445 0.0195957 -0.0576678 0.121075 -0.0532326 0.0321356 -0.0319346 -0.208948 0.0362422 -0.0118185 -0.0440984 -0.037247 -0.0293254 -0.0247198 -0.0255987 0.0615803 -0.00659253 -0.077113 -0.00283093 0.0381989 0.0935847 -0.0309971 -0.11738 0.00883841 -0.0132381 -0.0902275 0.036535 0.0537617 0.00426256 -0.10906 -0.0677914 -0.038227 0.0557851 0.000594927 0.000358276 0.127053 0.0691577 -0.000543062 0.0814708 -0.0859811 -0.0317883 -0.0116386 0.0441714 -0.0890859 -0.00728676 -0.0304956 0.00914207 0.0547508 0.112658 -0.0217588 0.110267 0.0238775 0.101775 0.157979 0.0318288 -0.0723556 0.159316 -0.0706432 -0.0320918 -0.10052 -0.0259054 -0.0178074 -0.0219972 0.0566656 0.00357896 -0.0152855 -0.111248 0.0126375 -0.0509303 -0.0935957 0.053324 -0.1031 -0.0135863 0.012796 -0.0373643 0.0170953 0.0761994 -0.0087624 -0.0673793 -0.0866302 0.0594617 -0.053598 0.0825069 -0.0230854 0.0141807 -0.0919473 0.0442929 -0.0584714 0.0557975 0.1137 -0.077864 -0.0166613 0.0824264 0.0889253 0.00268063 -0.142974 0.0534493 -0.0256054 0.00495914 0.0405285 -0.0830138 0.081514 -0.00988758 -0.0429061 -0.0769512 0.0387004 0.0786127 -0.108073 0.181144 -0.00315149 -0.112316 -0.0643011 -0.0535622 -0.125966 0.0875966 -0.00401447 0.0653991 0.0879768 -0.0137556 -0.00251758 -0.0506124 0.0263723 -0.0494266 0.11446 0.101828 -0.179139 -0.0263564 -0.0341369 0.0556041 0.0402972 -0.0107756 -0.0315154 -0.0249922 -0.0202455 -0.0154531 -0.104949
practise 0.0127317 0.00285228 0.0168466 0.000463061 -0.0948554 -0.0445218 -0.0902048 0.0194358 0.0546596 -0.044989 0.0325303 -0.0381111 -0.0911472 -0.102801 0.0964473 -0.106989 -0.0585235 -0.044699 -0.0467901 -0.0671224 0.110098 -0.036194 -0.104841 0.118502 -0.0526835 0.109419 -0.0711357 0.0703412 -0.0872196 -0.0406105 0.00143744 0.0733668 -0.097751 -0.149628 0.0817134 -0.0559118 -0.080664 -0.0268629 0.107758 0.206696 0.0548 -0.0456399 -0.0723761 -0.0270183 -0.0496284 -0.110267 0.0693787 -0.0467205 0.0186895 0.0281448 -0.0243483 -0.0500185 0.015688 0.0829272 -0.048159 -0.0968709 0.0362739 0.0505235 -0.0217516 0.0913927 0.0245106 -0.0161605 -0.00129985 0.0485177 0.0416393 0.0202637 -0.0764709 -0.0039007 0.0763627 0.158906 0.0235965 -0.0114079 0.0551382 0.101052 -0.122357 0.0230037 -0.0350257 0.0582562 0.0899725 -0.0304706 0.0841947 0.00553856 0.110833 0.0591876 0.042712 0.102253 0.00943711 -0.0772128 -0.0220283 -0.0424055 -0.0694429 0.0647366 0.0162613 0.0245135 0.0777012 -0.056137 0.00161285 -0.00362691 0.131299 -0.145167 -0.115711 -0.0626559 -0.0512228 -0.0317072 0.118848 0.0719452 0.0210669 0.00782404 -0.0860559 0.0723872 -0.0741356 0.0109608 -0.0374631 0.018361 0.0229849 -0.0344251 -0.0483051 0.0690902 -0.0919605 -0.121378 0.00776857 -0.0921578 -0.0320034 -0.0413219 0.0699245 -0.117192 -0.00412628 0.0819424 -0.0514855 0.0300474 -0.0179224 -0.0272166 0.125327 -0.0973558 0.0707381 0.0043245 0.0385023 -0.023655 -0.0174736 -0.0038917 0.0309673 -0.0678249 -0.0256155 -0.127157 0.0431945 0.0456134 0.0644257 0.0722835 0.137343 0.050852 0.0569699 -0.0852836 -0.00596325 0.0406283 -0.0642586 -0.075001 0.171512 0.0184191 -0.0444426 0.0968999 -0.00135224 -0.0625165 0.0898248 0.00602571 0.133527 0.128301 0.0122277 -0.087041 0.116915 -0.0972031 0.179522 -0.0483853 0.0257794 -0.0103451 -0.00795113 -0.0112354 0.0295773 0.0291503 0.0439114 -0.0662565 0.000358718 -0.0820184 -0.0401309 0.0130041 -0.0075847 0.0399662 -0.0141949 -0.123516 0.00935035 0.0628112 -0.0275175 0.0833678 0.0181674 0.0653352 -0.0783876 0.0274132 0.105885 0.0483535 0.01531 -0.121219
backwards -0.00984392 0.0356973 -0.00133664 0.0478252 -0.0014182 -0.0513482 0.0074068 -0.0701644 -0.0491851 0.0464535 0.126556 0.00664845 -0.00879605 0.182292 0.0444373 0.0628338 0.10399 -0.0370822 0.149098 -0.133956 0.184488 0.0431845 0.00508927 0.0554371 -0.0542061 0.0125767 0.0110591 0.0761121 -0.00948197 0.00245057 0.159626 0.107641 0.0095367 0.0517792 -0.006971 -0.0658452 -0.0293944 0.0729763 -0.0579884 0.00835726 0.0555205 0.00051267 -0.094392 0.00899332 0.0720707 -0.00564717 -0.0768379 0.0354141 -0.00729988 -0.0139761 -0.0424487 -0.0501959 -0.096594 -0.0471394 0.0457974 -0.109417 0.0627504 -0.00699528 0.037816 -0.0543788 0.0940833 0.0228479 0.0795093 -0.0125442 0.0364542 -0.0312465 0.177914 -0.112162 -0.0853453 -0.205277 0.00047648 -0.0296276 0.133254 0.0189152 0.0262942 0.108869 0.0935353 0.102806 -0.101048 0.0424553 -0.0431435 -0.0632902 -0.0402032 -0.00103573 0.070044 -0.0750607 -0.0620505 0.0242726 -0.0583932 0.0123423 -0.011806 -0.0687813 0.095535 -0.042721 0.0742367 0.0148169 0.0359048 0.0767797 -0.120939 -0.0683489 0.0351939 0.100583 -0.119278 -0.0425157 0.0529429 -0.00101982 0.106124 -0.0172631 0.0596016 0.01605 0.0131631 0.113354 0.0754104 -0.110395 0.0775015 0.0839747 0.0333144 -0.0258203 0.0347138 0.0224238 0.0221818 0.0329365 -0.0213486 0.00246741 -0.0813132 -0.0173094 -0.0827939 0.146396 0.0274951 0.102879 -0.0641175 -0.0321126 -0.0250782 0.0290831 -0.0200452 -0.0195603 -0.0474079 -0.0414163 0.0159021 -0.0137097 -0.0162757 0.0361042 0.0348613 -0.0808091 -0.0859829 0.123897 0.0189138 -0.0174305 0.00885853 -0.129792 -0.00789641 0.0199127 -0.00264816 -0.0509592 -0.0910978 0.0433962 0.0899348 -0.106427 0.0403713 -0.0715872 -0.0364934 -0.0870155 0.086086 -0.165402 -0.0562976 0.150161 0.121741 -0.0493664 0.0681907 -0.00514477 0.0187714 -0.0128181 0.127669 0.0463592 0.0271607 0.0604863 -0.0418416 -0.0899849 0.0727398 0.119761 0.0930902 0.0538333 0.0806435 0.0119681 0.0792558 -0.0550759 0.0677791 -0.0621957 -0.0372702 -0.0436646 0.0777672 0.00249818 -0.0873119 0.0619872 -0.0851898 -0.0652619 -0.063481 -0.00295739 -0.0367255 -0.0495464
asylum 0.0967837 0.110381 0.0137382 0.0500021 -0.0647748 -0.0164216 0.0387657 0.0870978 -0.0823468 -0.0925487 -0.0577002 -0.107059 0.027461 0.0220656 -0.0479726 0.0403793 0.0682822 -0.0192815 0.0157723 -0.0701714 -0.0577088 -0.00135239 0.0219186 0.0453669 0.0796457 0.0835092 -0.100066 0.091225 -0.00598149 0.0687761 0.0734705 -0.0744214 0.0493023 0.0820084 0.0522523 -0.0398732 0.0559001 -0.0766462 0.0507286 0.119524 -0.0884887 -0.0324723 -0.00599502 -0.0550515 0.00878322 -0.0592098 0.122058 -0.0345154 0.0981142 0.00532772 0.0124189 0.0111515 -0.0554718 -0.0418376 -0.0898877 -0.156866 0.101549 0.0121879 -0.180477 0.053515 -0.0177368 -0.0838445 -0.05383 0.0544421 -0.0524341 -0.0960169 -0.120899 -0.129818 -0.208256 0.0471215 0.0174254 -0.0336786 -0.0114159 0.119895 -0.0772276 -0.0331427 0.0268231 -0.0380228 0.00566245 0.0452157 -0.070637 -0.0486575 0.0170513 0.0598779 -0.0947715 -0.198981 0.0800165 -0.0187503 -0.0855571 -0.0913902 -0.0823478 -0.0277426 -0.0349455 0.00888944 -0.0873325 -0.0206499 -0.0564335 0.0520866 0.00888882 -0.112542 -0.0235546 0.0263601 -0.080656 -0.0773224 0.00786339 -0.0698059 0.00818075 0.014484 0.0942021 -0.0866595 -0.0283116 0.0305389 -0.0424464 0.105871 -0.0759806 -0.0408464 0.00767624 -0.0626112 0.147296 -0.0193621 0.0522239 -0.0528512 -0.0511974 -0.0220655 -0.046167 0.0078301 0.0655868 0.00370553 -0.0577566 0.045312 -0.095115 0.0857792 -0.0462635 0.0714123 -0.00582908 -0.0832577 0.132057 -0.0235588 -0.00320483 0.0388622 0.169073 0.0842308 -0.0251435 -0.0413547 -0.0324084 0.0595586 0.0442242 0.0159735 -0.00791643 -0.030958 -0.00357946 -0.11408 0.0787198 0.0244792 -0.00416812 -0.133787 -0.0789324 -0.038455 -0.00948962 0.0674136 -0.00153691 -0.0659991 -0.0647305 -0.131466 0.141336 0.014985 0.0191141 -0.0917136 0.0442102 -0.0288194 -0.00387521 0.0212882 0.0585 -0.132187 -0.018875 0.0713294 -0.0558569 -0.0522345 -0.0690925 -0.0126399 0.119076 0.0304171 0.0137104 0.125242 -0.0477064 0.0487366 -0.0257763 -0.0905061 -0.00523087 0.0877463 0.082689 0.0511047 -0.0623368 0.0130158 -0.0994023 0.022889 -0.0787809 -0.118999 0.0822811 0.057464
grand 0.0247903 0.13501 0.0407754 0.069389 0.0732267 -0.07476 0.144236 0.0662932 -0.106848 0.142511 0.0194674 0.00366799 -0.0718653 0.0396858 0.0418505 -0.041558 0.0425997 0.0411722 0.0151874 0.045233 -0.0977157 -0.0382997 0.0100365 -0.056477 -0.0985427 -0.0139226 -0.0164906 -0.176535 -0.0264097 -0.0296951 0.0106291 -0.00520198 -0.0819215 -0.01435 -0.0481842 0.0270806 0.0442558 -0.00172148 -0.0385868 -0.0105424 -0.0596543 -0.127036 -0.0153237 -0.0399105 0.139135 0.0437992 0.0836541 0.0547822 0.0588745 0.0505957 0.122851 -0.0411964 0.0256802 0.0236025 -0.0993933 0.0363794 -0.0415726 0.143347 -0.0340972 0.155307 -0.0122587 -0.0361593 0.0155429 0.0680554 0.0582048 0.103779 0.0881659 0.036947 -0.011629 -0.0101268 -0.050688 0.0298584 -0.141801 -0.0968898 -0.0122223 0.104067 0.027715 -0.000205609 0.134426 -0.0414932 0.00369627 -0.119691 -0.0128816 0.0291871 -0.0454419 0.0804606 0.0170932 0.00871155 0.134785 0.0404604 -0.0128424 0.101941 -0.140565 -0.0388879 0.0325198 -0.124501 0.0295708 0.0347193 0.0745404 0.0275395 -0.0175296 0.073163 0.0534389 -0.10999 0.0180832 0.110576 0.0504135 0.03929 0.0612892 0.0446128 0.181362 0.118992 -0.0272758 0.00650149 0.044752 -0.0494921 -0.14712 0.0958696 0.0343738 0.0572066 0.0741501 0.0750296 0.0156621 0.00382935 0.08965 -0.0261277 0.034695 0.0682124 -0.0363108 0.0378137 0.00512632 -0.0747315 0.11425 0.0616419 0.129515 0.0162355 0.0561625 0.0347523 0.0762279 -0.126849 0.00617623 -0.0266793 0.0435787 -0.161597 0.0452038 -0.0562402 -0.0173855 0.105331 -0.0249005 0.00573977 -0.00971285 -0.0436225 -0.122115 -0.155384 -0.0722422 0.0644263 -0.0515362 0.0413184 -0.170277 0.0298252 -0.0183074 -0.045773 -0.0293253 -0.0945942 -0.112996 -0.00527916 -0.0112222 0.0995636 -0.00198389 -0.0824662 0.0270101 0.0234499 0.0830882 0.0511707 -0.0200437 0.025151 -0.0321242 -0.0620937 -0.0539008 -0.0935446 0.0214206 0.0167079 0.0638825 -0.00103945 -0.0386459 -0.0550655 0.0141571 -0.0358645 0.00273081 0.110044 -0.069457 0.070857 0.0734483 -0.0228854 -0.0297748 0.0882212 -0.10102 -0.00800053 0.0569409 -0.0425208
weakened -0.119978 0.0534358 -0.00138421 -0.0177122 0.0590866 -0.155468 0.0209218 -0.0862715 0.0670401 -0.0838577 -0.0620132 0.0707529 0.00657258 -0.141599 0.0509242 0.0518664 0.00408543 0.0983268 -0.11763 -0.000756597 0.0231321 -0.115508 -0.105941 0.00177601 -0.0439941 0.0595005 -0.0949279 -0.124673 0.0517229 0.0714304 -0.0287523 0.0822955 0.0192924 -0.013752 0.0219836 0.0213957 -0.00555078 -0.0662725 0.106288 -0.0278974 -0.0468187 -0.0129354 -0.0086212 0.0348696 0.100262 -0.0216808 -0.0181483 0.0771507 0.0814826 -0.0166752 0.0294938 -0.0612728 -0.0364113 0.0061235 -0.0135326 -0.0465231 -0.0938522 -0.0274512 0.0277767 0.014697 -0.101085 -0.040484 0.0731011 0.0238271 -0.0189288 0.138665 0.0522264 -0.0394117 0.0658834 -0.0566587 0.0309038 0.107569 0.0377888 0.0964758 -0.128902 -0.0736013 0.0106474 -0.180533 0.0111356 0.0917393 0.107795 0.121005 0.0457167 0.0608442 -0.0596032 -0.0986697 -0.147918 0.0750921 0.0157651 0.0750123 -0.11302 0.0700848 0.0786825 0.0107676 0.0417728 -0.0233006 0.127528 0.00704076 0.146558 -0.0845937 -0.015339 0.0132104 -0.010647 -0.0372433 -0.041015 -0.161691 0.0204872 -0.0710406 0.0718276 -0.0645481 -0.065959 -0.051171 0.17327 0.0101811 -0.0076193 0.0559209 0.0862523 0.0428993 0.0609702 0.0101379 0.0905797 -0.102087 0.0520049 0.0471754 -0.059904 -0.00603723 0.0498362 0.0314174 0.0795885 0.00815363 -0.0194457 0.0589974 0.01023 -0.0714669 0.142682 -0.0789446 0.050174 0.0202432 -0.00225731 0.026951 -0.0530275 -0.0410409 -0.0469425 0.036178 0.0456431 -0.0470933 0.0678013 0.00727386 -0.0688809 0.00384623 0.0714233 0.0220567 -0.0973481 0.0587954 -0.000428149 0.0370291 -0.0368931 -0.0791286 0.117712 -0.0318345 -0.0364186 -0.0576297 0.0240462 -0.101523 -0.0072085 -0.16305 0.072655 0.00719965 0.0641458 0.0848421 -0.0545198 0.0430555 -0.0578162 0.0679972 0.000126242 -0.140352 0.0338386 -0.0306848 -0.0459748 -0.0141098 -0.0536518 0.0407048 0.054375 0.05472 -0.0560181 0.119509 -0.0889516 -0.0991827 0.102323 0.0607217 -0.034258 0.141615 -0.112513 0.148511 0.0334598 -0.00135468 -0.00170319 0.0762343 0.0152578 -0.0118576
founding 0.12963 -0.0577497 0.00523695 -0.0279827 -0.0091338 0.0372186 -0.0599818 0.00891269 -0.00775338 0.0888205 -0.106919 -0.105885 0.0295104 -0.099182 -0.066085 -0.0482982 -0.0568408 -0.063482 -0.031847 0.148025 0.00956947 7.76594e-05 0.0535446 0.140394 -0.0743192 -0.0162043 -0.0179698 -0.0318221 0.117245 -0.0322034 0.064123 0.059169 0.0472156 -0.00585358 -0.083774 -0.0290931 -0.03391 -0.0847132 0.0649952 0.0496366 -0.0594106 -0.0171101 -0.0186191 -0.00667703 0.0502126 -0.0376717 0.0544973 -0.0799891 -9.41707e-05 0.124827 0.00949001 0.117555 0.0106569 -0.122727 0.0517269 -0.0558065 0.0334848 -0.0608518 0.124897 -0.125087 0.081592 -0.0728846 -0.016985 0.0742992 0.127553 -0.00358081 0.123971 -0.0614162 -0.158912 -0.056628 0.0410434 -0.0437982 0.0887188 0.196803 -0.126811 -0.052252 -0.0489394 -0.0244893 0.0220945 -0.0637971 0.00863928 0.00170768 0.0143083 0.0434669 -0.087262 0.0617034 0.104484 0.0758371 -0.0152632 0.070843 0.0238989 0.10224 0.0279402 -0.0223311 -0.140268 -0.00483868 0.0559744 -0.0105736 -0.0502945 0.119558 0.0159219 -0.0382478 -0.00207759 0.07305 0.0540496 0.0891184 -0.136774 0.0893562 0.00214517 -0.00615862 -0.0503591 -0.114597 -0.0837877 -0.0373336 -0.0459442 0.0669589 -0.138756 0.0755775 -0.0758727 -0.0565902 0.0086839 0.120098 0.0814748 -0.0163877 -0.0288251 -0.0477998 -0.138045 0.0162162 0.0545154 0.0268631 -0.0990671 -0.0201131 -0.0953575 0.00595533 0.152125 -0.100775 0.112226 0.0555872 0.0318044 0.0668707 0.0384902 0.011826 -0.104563 -0.0766699 -0.0694624 0.0219128 0.0210241 -0.0222683 0.0201998 -0.0461419 0.0446931 0.0442827 -0.00395777 -0.0113841 -0.00421139 -0.0482878 -0.0771525 -0.0112225 -0.0978473 -0.0524946 0.0368071 0.0363772 0.0411155 0.00163521 -0.0395184 -0.0966924 0.0684417 0.124412 -0.0136242 -0.129416 -0.0197394 0.0948651 0.0954497 -0.0394816 -0.0175371 0.0605489 0.052443 -0.00725921 0.0589942 0.0862867 0.0591962 0.00896071 0.0983249 0.101329 -0.0121934 0.0428729 -0.0693246 -0.0497236 -0.0584279 -0.0766748 0.0564765 0.0771405 -0.0280865 -0.128865 0.111026 0.0274347 -0.00527179 -0.0323092 0.111639 0.0218979
prepared -0.109433 -0.0405993 0.0181381 0.0504494 0.0152339 0.0720439 -0.0256629 -0.00851687 -0.00745831 0.0618165 -0.0307121 0.00579219 0.0186392 0.0809268 0.106307 0.0786923 -0.053843 -0.105472 0.0339645 0.00531291 0.00607654 -0.0834893 -0.0293997 -0.0603332 -0.0518392 0.15248 0.0789203 -0.0166183 0.0545748 0.0607494 -0.0490769 0.0803571 0.0443515 -0.058977 -0.00818032 -0.0257841 0.119303 0.00767837 -0.0133486 -0.0438208 -0.0837963 -0.0665247 -0.154506 0.00320754 0.0834575 -0.0144391 0.138105 -0.0310279 0.0676419 0.00711236 -0.0186854 -0.211007 0.0288672 0.0485964 0.0959861 -0.189989 0.0357639 0.0834043 0.00685269 -0.0415176 -0.0579145 0.100581 0.00676721 0.0214893 -0.0023734 -0.00189244 -0.115702 0.0467061 0.10069 0.0323394 0.131401 -0.0318787 -0.116693 -0.117076 0.000381639 -0.100637 -0.0797702 0.0416918 0.0578622 0.0699673 -0.0856703 -0.157129 -0.00485821 0.0207916 -0.055991 -0.00357805 0.046551 0.211196 0.0300129 -0.0904941 -0.0407521 -0.03356 -0.0549893 -0.0520747 -0.0481425 -0.0873175 -0.0677886 0.161311 -0.034764 0.0253878 0.052671 0.0566978 0.0385837 0.0676323 -0.0111201 -0.148819 0.0300519 0.0294119 0.0663066 -0.0438246 -0.0599136 -0.0284257 -0.031227 -0.113134 0.0912183 0.0377477 0.0793046 -0.140305 -0.0931319 0.06208 -0.0829512 -0.0485499 0.0414781 -0.0244215 0.0597043 0.107873 0.0850484 0.0950204 -0.0224336 -0.0649941 0.0652741 0.116529 -0.0474123 -0.0175744 -0.0300216 0.0656375 0.0542698 -0.0239604 0.102217 -0.0242664 0.0161453 -0.0488308 0.0459695 0.0498058 -0.000651401 -0.0185119 -0.0740208 -0.0204722 0.0179 -0.0627879 0.0703702 -0.116379 -0.025748 0.0238879 -0.118858 0.0616048 0.141958 0.0145543 0.0153958 0.0135396 0.00467504 0.0556354 0.070412 0.052035 0.0308989 0.0107513 0.0304125 -0.0475302 -0.0174729 0.040871 -0.117452 -0.0748881 -0.0116623 0.0222101 -0.0117514 0.0190271 0.113133 0.144184 -0.0330494 0.109402 -0.0221358 0.102593 -0.0975157 0.0911908 0.0815631 0.050454 0.0580969 -0.0363703 -0.0287783 0.0248999 0.000154451 0.00700061 0.11287 0.0120676 -0.044237 0.0170072 0.0418835 0.0499731 -0.0649922 -0.00983989
talented -0.0378463 -0.0670736 0.0408043 -0.121865 0.118479 0.04131 -0.0973864 -0.0584147 0.00709524 -0.017511 -0.0900896 -0.0193905 -0.0907198 0.133857 -0.0740888 0.0450505 0.0444813 0.00168806 -0.124591 0.0982327 0.0981271 -0.0606051 0.0133017 -0.00712927 -0.0321121 0.139794 -0.027716 -0.0326458 0.00376426 0.0787656 0.00389696 0.0171551 0.0594451 -0.0589326 0.0424292 0.0145222 -0.0148594 0.0186428 -0.0891247 -0.0124372 0.0133797 0.032612 -0.0189141 -0.0325128 -0.00701463 0.0146432 -0.124492 -0.0352462 -0.00455399 -0.0662388 0.0751525 -0.128304 0.030419 -0.0141832 -0.106196 -0.0412775 0.0265525 -0.0371842 -0.0169956 -0.0606988 -0.0345473 0.0413978 -0.0188591 -0.124431 0.0524743 -0.0770003 0.0768323 -0.0828561 0.0339802 0.0835899 0.034893 -0.00184855 0.0236588 -0.0210889 -0.136442 0.145448 -0.113821 -0.0938832 0.0569628 -0.0523226 0.0212288 -0.0848786 0.0573534 -0.0417526 -0.0698352 0.0525222 -0.0903703 -0.0910097 0.0956239 -0.0024708 0.0527298 0.0198388 0.176258 -0.0926546 0.0758014 0.0296165 -0.00523133 -0.0341506 0.0667761 0.00551328 0.0907592 -0.0537081 -0.0370537 0.147377 0.0851221 0.0140874 0.176492 -0.0138621 0.0359023 0.0798047 0.0926339 -0.000431807 0.112784 -0.0324244 0.0595209 0.0273426 -0.0355115 -0.0661381 -0.049895 0.056161 0.0592502 -0.0402472 0.0255519 -0.0815539 -0.010993 0.0997006 0.116449 0.0827777 0.0422905 -0.057028 -0.0701734 0.0558792 0.0532641 0.0345007 0.125712 -0.123095 -0.128564 0.00869691 -0.0723307 -0.040439 0.043241 0.0373431 -0.0140906 -0.0873107 -0.0772859 -0.0355149 -0.0759512 0.00546725 0.0310554 0.0706167 -0.191758 -0.056444 -0.0512833 -0.0261054 0.0472937 0.0107409 -0.0398128 -0.0304098 -0.11336 -0.177326 0.0453184 -0.089195 -0.00673615 0.0348843 0.0171345 -0.0766639 -0.00272955 -0.0359282 -0.0343153 0.00258958 -0.0731337 -0.0258735 0.0133424 -0.0518898 0.0631654 0.0206077 -0.183889 -0.0338048 0.064697 0.0737955 0.151814 -0.0817873 -0.107085 0.144349 0.0473884 -0.0417536 0.0121571 0.0193725 -0.0162504 0.0698425 0.0330529 -0.000857453 0.0837655 0.0320965 0.0335214 -0.0977963 -0.00887937 0.057665 -0.0146834 0.0715379
quicker 0.0570484 -0.0394454 -0.0375333 -0.077862 -0.105987 0.0128233 -0.0534234 -0.043278 0.101377 0.00669189 0.0780595 -0.0688954 -0.0467787 -0.0242907 -0.0775719 0.0163476 0.0278928 0.0362376 -0.0838279 0.02165 0.11648 -0.0221437 -0.030231 -0.0386532 -0.094726 0.0689405 -0.112762 -0.118197 0.0790591 0.047367 0.000214112 -0.0767542 -0.0611103 -0.0458592 0.0442858 -0.000961936 -0.0181876 -0.0023129 0.00475404 0.0278304 0.0687209 0.0551935 -0.111712 -0.0558546 -0.0514197 -0.0336919 0.0501989 -0.00483898 0.0160463 -0.0603243 0.130918 -0.0130886 -0.0179004 0.043938 0.0764757 -0.110236 0.0342472 -0.0561773 -0.0452128 -0.100178 0.0505371 0.0045862 -0.01213 -0.00591669 -0.0274035 -0.113658 -0.0860237 -0.0170055 -0.0188015 -0.0223197 -0.0192873 -0.0142171 0.00800778 0.0223859 -0.0137209 -0.0658572 -0.123192 0.0344495 -0.0232135 -0.0559187 -0.0997421 -0.0129439 0.0698313 0.133107 0.00535468 0.010486 -0.0165131 -0.0982059 0.0158057 -0.156369 -0.0239973 0.0288364 0.13806 -0.0101535 -0.0324597 0.0432595 -0.0308718 -0.0680679 -0.129964 0.0716714 -0.0182897 -0.0552095 0.0289462 0.0199578 0.00755952 -0.0928508 -0.0327028 -0.102538 -0.121325 -0.0816395 0.0763791 -0.00627873 -0.0188443 0.00803496 0.0426388 0.0941373 0.103843 0.100248 -0.0509976 -0.0740443 -0.00487261 -0.0982944 0.0347928 -0.0216536 -0.0320227 0.0203446 -0.00394034 0.0235058 0.116345 -0.176919 -0.0209703 0.0154457 -0.0591796 0.0405392 -0.104718 0.0303842 -0.0966539 0.0734515 0.00713673 0.0316364 -0.0964968 0.0725924 0.121031 0.000459164 -0.0488535 0.0119418 0.0587757 0.032918 -0.0119834 0.132792 -0.110735 0.158934 0.0567632 0.0721619 -0.108271 0.00731923 0.0310684 0.00333732 0.0878865 -0.0550957 -0.165139 0.0198974 0.00899652 0.156066 0.136113 0.0390836 -0.154375 -0.100142 0.135186 0.128973 -0.034293 0.158203 0.0182638 -0.0393714 -0.115922 -0.0796841 -0.00479084 -0.0192637 -0.104548 -0.019378 -0.0224888 -0.111518 -0.0855775 0.0788841 0.0733013 -0.0463129 0.0788831 0.0182628 0.0100597 0.046253 0.00475949 -0.0504529 -0.145432 -0.0813639 0.0544317 -0.0678502 -0.0209401 -0.0393834 -0.0227349 -0.0605672
surplus -0.00812302 0.0112726 0.123055 -0.0715509 -0.014077 0.058479 0.0039786 -0.0921198 0.0396539 0.0734406 -0.0285933 0.0222677 -0.0515597 -0.116963 -0.0406034 0.108323 -0.0164029 -0.00633273 -0.0532658 0.0140718 -0.0476682 -0.0297911 0.0397244 0.0422372 0.0484913 -0.0291807 -0.0584922 -0.00347156 -0.0540798 -0.0224111 -0.0458573 -0.012777 -0.0264036 -0.040409 0.084202 -0.129932 0.155361 -0.116311 -0.00668872 0.111258 -0.0765253 -0.207962 0.0365874 -0.0130513 0.0435733 0.009561 -0.0554438 -0.0473582 -0.091896 0.0746561 0.121444 -0.054883 -0.172551 0.13226 0.0145696 0.0122947 0.0369461 0.0627077 -0.0592718 0.0266393 -0.0185299 0.0582564 -0.0382958 0.0853949 -0.148209 0.175774 0.00334239 0.0947254 0.0604043 0.0395422 0.0963079 0.0219788 0.071925 0.0092688 0.0208177 0.0360809 0.0419402 -0.0470062 -0.0393616 0.0214094 0.0146912 0.00263338 0.100606 -0.00644534 -0.125207 -0.0124232 0.0589514 0.0315352 -0.0790016 -0.0294913 0.0281156 0.0936688 0.000462344 0.0264191 -0.105242 -0.0850711 0.0515673 -0.121933 -0.0578018 0.00471006 0.10837 0.0489054 -0.0289952 0.0353403 0.00079007 -0.0299049 -0.0301004 -0.0990265 -0.0657725 -0.0236552 0.130402 0.0491845 -0.0135266 -0.0110577 -0.00319002 -0.0523889 0.125471 0.104303 0.0371346 0.115242 -0.0735909 -0.134798 0.0715791 0.0614758 -0.065376 0.00141973 0.0036962 -0.00428423 0.031816 0.0553393 0.108898 -0.083004 -0.0632374 0.00260903 0.0388317 -0.0201088 -0.0936942 -0.15188 -0.0081495 0.0568555 0.0995239 -0.108026 0.133404 0.00482705 -0.0556225 0.0317481 0.0603052 0.0348804 -0.0911942 -0.0518586 0.00808446 0.034298 -0.0657702 0.0500916 -0.0413874 -0.0758142 0.0715086 -0.00514944 -0.00795934 -0.0659581 -0.0632769 -0.0485987 -0.052024 -0.116477 -0.0113883 0.102995 -0.0330958 -0.188268 0.0766775 0.0216837 -0.0585185 0.0218116 -0.0385187 -0.0524736 0.00538426 0.0100982 -0.00862059 -0.0519148 0.0103305 -0.0274661 -0.078089 -0.106264 -0.0515661 0.0983989 0.0876191 -0.0743013 -0.00975376 0.00600336 -0.22617 0.0164548 0.000309628 0.0480678 -0.101945 0.050226 0.00368195 0.0656283 -0.0590614 -0.0832767 -0.0127656 0.00678613
busy 0.0633874 -0.0163807 0.0841885 -0.0014814 -0.0795958 -0.0313466 0.0346336 0.0122311 0.00794815 -0.0164269 -0.0864915 -0.0195442 -0.104755 -0.0562136 -0.00157284 -0.0585687 0.0936294 0.0445051 0.102703 -0.0118913 0.102208 -0.011723 -0.00950877 -0.0891694 0.0451154 0.0789387 0.0878401 -0.0419543 0.051829 -0.0546193 0.0167279 0.0761803 0.0671035 -0.0351446 0.0276397 0.00569916 0.0486433 0.0349393 0.0305396 0.0222316 -0.0101279 0.106153 -0.194207 -0.0164373 0.0860981 0.037652 0.0141592 -0.020197 -0.184413 0.0793735 0.0399122 -0.00162167 0.113157 -0.0182701 -0.147548 -0.159102 -0.178681 0.0121844 -0.0968632 0.100605 -0.0405835 0.0937175 0.0908321 0.0779373 -0.101253 0.219643 0.0413043 -0.031849 -0.0628632 0.0371206 0.0867133 0.0660362 -0.134375 0.0552449 0.0904869 0.0995563 0.0630248 0.00663598 -0.0415769 0.0834614 0.00565132 -0.0303979 0.108775 -0.0320851 -0.122369 -0.0221558 -0.0946303 0.0542555 -0.0513773 0.0704638 0.00285504 -0.0383756 0.0241261 0.0119777 0.013429 -0.0234505 0.0483211 -0.021469 -0.0772827 0.0101338 -0.116555 -0.0612557 -0.0611403 -0.0238278 -0.124821 0.0145561 -0.0053364 -0.255466 -0.0769269 0.0831469 0.0709564 0.0209528 0.0728854 -0.122944 0.0234857 -0.0725844 0.0443479 -0.0824042 -0.0330653 -0.0557376 -0.0250255 -0.0761661 -0.00983281 0.0463563 -0.00953845 0.0374053 0.0199236 0.00973012 0.13289 0.010736 0.00953358 0.0501112 -0.0783481 -0.0610216 -0.0682286 0.0320073 -0.0678565 -0.0553862 0.0802352 0.00624464 0.0805569 0.0974282 -0.0263526 0.00524694 -0.0232093 0.112949 0.0376948 -0.0682128 0.0599292 -0.0807938 -0.0502978 0.0330942 0.072558 0.0350916 0.0970849 0.0168864 0.0223745 -0.0597133 -0.0251298 -0.0295045 0.080166 0.137201 -0.0244099 0.061415 0.0100346 -0.0382752 -0.0310531 -0.103493 0.0252142 0.0669474 -0.0485668 -0.00793096 -0.0288946 -0.0400603 -0.052092 -0.00631298 0.0100628 -0.0510278 -0.114055 0.0212401 -0.0383818 -0.0251254 -0.00339699 0.0290262 0.036479 0.0154303 -0.0250781 0.104618 0.0507879 0.0136821 0.0292937 -0.0175676 0.11715 0.0244741 0.0954297 -0.135582 0.0457712 -0.0731291 0.103835 -0.022704
disruptive 0.0658785 -0.0424982 -0.114507 0.0171086 0.0996646 0.0468732 0.0493394 0.0230314 -0.0851236 -0.0845047 0.06454 0.0969085 -0.106729 -0.0367455 -0.116143 -0.125908 0.00774293 0.0569591 -0.00654954 0.117595 0.0891215 0.0562406 0.0190011 -0.111345 -0.130111 -0.00240911 0.0435599 0.0865897 -0.0583852 0.00861775 0.0452626 0.0472942 -0.0056241 0.0119836 -0.0117459 0.0475869 -0.0350291 -0.0234746 -0.154309 -0.000201071 -0.0881397 -0.0789886 -0.0493338 -0.107151 -0.0178564 0.0757573 0.00481443 -0.062081 -0.0335905 -0.103108 0.00178455 0.0736065 0.0935374 0.0683482 0.129186 -0.0992181 -0.0578085 -0.00687762 0.0383278 0.0908427 -0.0968682 -0.104862 0.10811 0.00374086 -0.0283423 0.0610824 -0.0248964 0.0113227 0.0730291 0.000421751 -0.120092 0.0221235 0.0953157 -0.0299207 -0.069969 -0.0578655 -0.0638781 0.00206997 0.137542 0.0459231 -0.0179907 -0.074637 -0.0480694 0.0599535 -0.0246418 -0.144668 0.0469081 0.0201827 0.0299446 -0.0896389 0.0754908 -0.0410996 0.0710788 -0.0238571 0.131197 -0.110074 -0.0200825 -0.0671818 0.0417351 -0.0815112 -0.013565 -0.0269993 0.0155313 0.00522849 0.111929 -0.14511 -0.0949007 0.0663299 0.0394241 -0.122599 -0.189003 0.109151 -0.0580387 0.075819 -0.00406853 0.182034 0.11685 0.0299252 0.0883516 0.00789352 -0.00528119 -0.021647 -0.0958348 -0.0463113 0.0610255 -0.0162738 -0.0170439 0.0506474 0.0950329 -0.0292775 0.0239415 0.0338775 0.0520738 -0.0404974 -0.0220324 -0.0129859 0.0249956 -0.0204378 0.0685951 -0.0789651 -0.02373 -0.0513962 -0.0321684 0.00783931 -0.126042 -0.0574296 -0.118098 0.00893958 0.0889248 -0.0197114 0.0747861 0.0929538 0.00118038 0.0742521 -0.0962732 0.0691866 0.0789002 -0.0305056 -0.0278263 -0.13379 0.0206859 0.0776848 -0.0196402 -0.0915236 0.103127 -0.0109902 0.0547101 -0.0450198 -0.0106418 0.0880124 -0.0627437 -0.126524 -0.00257811 -0.00268748 0.0947308 0.015227 0.00469713 -0.0591718 0.0342957 -0.0973823 -0.0639361 -0.0244127 0.0803121 -0.0998018 -0.0023261 0.0798393 0.0482493 -0.0868853 0.119772 0.0684198 -0.0220818 -0.0545083 -0.057367 -0.0283053 0.0670687 -0.0126 -0.00958783 0.0363165 -0.00580911 0.0206715
continuous 0.0654051 0.028015 -0.000403875 0.0761484 -0.089929 -0.0294315 -0.070686 -0.0407166 -0.0673344 -0.0532204 0.0590026 0.079966 0.103051 -0.0972341 -0.051752 -0.128021 0.0063148 0.00605807 0.13541 0.114786 0.0213329 0.0670216 -0.126344 0.0265543 -0.0378507 0.0509489 -0.00154087 -0.031519 -0.00447471 -0.0369534 0.0914767 0.11067 0.00843927 -0.0719014 0.0884173 -0.0815398 0.0821276 0.00116922 0.148585 0.0151373 -0.0549656 0.00179432 -0.0022681 -0.0918433 0.0766283 0.014766 0.0592621 0.0493272 -0.0310805 0.0385992 0.0433454 0.125398 -0.071963 0.0141206 0.0348548 -0.0766863 -0.0833704 -0.0417947 -0.0279896 0.0103056 0.0504367 0.0625378 0.0929568 0.0793145 0.0156439 0.026319 -0.0193706 0.00444372 0.0209583 0.0526607 0.0731097 0.0252734 -0.0468578 -0.043178 0.000959306 -0.0603374 0.091149 -0.0194347 -0.0570247 -0.00443852 -0.102878 -0.0697786 -0.0218868 0.0652656 0.0585745 0.129639 0.033497 -0.110762 0.0214998 -0.143653 -0.00458269 -0.0180566 0.19568 0.00670083 0.0729927 -0.103671 0.0741122 0.0577909 -0.0855387 0.159336 -0.0530938 0.002155 -0.0815561 0.0248236 0.0933332 -0.0100753 -0.0179337 0.106505 0.0504798 -0.0427349 0.111817 -0.0430322 -0.076368 0.0821897 0.0282357 -0.0991741 -0.0931389 0.0204504 0.0473813 -0.0110347 0.035037 0.00407604 0.100187 -0.00367994 0.0495702 0.066734 0.184719 -0.0807713 -0.0342277 0.00461937 0.0583716 0.012031 0.0655789 -0.0101695 0.0701918 0.0504044 0.0375099 -0.0441929 0.0899401 0.111156 0.0327702 0.0266306 0.0181992 -0.0323597 0.0623468 -0.00131812 -0.117689 0.0112813 0.122177 0.0983235 0.0454062 0.144505 0.0554326 0.0716547 -0.113329 0.0336618 -0.00803391 -0.131005 0.0396347 -0.0170458 0.0590384 0.0492517 -0.00152702 -0.044566 0.00363147 -0.024915 -0.072295 -0.0218859 -0.0508673 -0.0726132 -0.0618402 0.011384 -0.121158 -0.126867 0.0466189 -0.10586 -0.0737711 0.0321245 0.00819128 -0.0309866 0.0484476 -0.0423284 -0.0171366 0.0883401 -0.0403528 -0.161834 0.00400277 0.0185785 -0.031775 -0.0173632 -0.0780209 0.0448263 0.020599 0.141953 0.0783565 -0.133037 0.152222 0.00362793 -0.0997317 0.0398141
akin 0.0552574 -0.177769 0.0548179 0.0467355 -0.0643787 0.0960286 0.127963 0.0214807 0.106131 -0.0784273 0.110825 -0.00618703 -0.0658383 -0.0489801 0.0693197 0.010336 -0.0285441 -0.0750133 -0.0741913 -0.0145531 0.00770674 -0.126918 0.050745 0.053149 -0.022561 0.0619467 -0.0477312 0.0590209 0.0490191 -0.000409865 -0.0477408 -0.0520971 -0.0476296 0.095519 0.0483794 -0.0674129 0.0631325 0.0101397 0.0120301 0.0111526 0.0428547 0.0129493 -0.100014 0.0118283 -0.0549085 0.0776532 0.000115963 -0.0174975 0.0415524 -0.124487 0.0174687 -0.09764 -0.0556594 0.0802309 0.0540523 -0.0387876 -0.0937625 0.0262889 -0.064331 0.0313332 -0.114383 -0.106984 0.104667 0.0158247 -0.0470105 -0.0725999 0.100489 -0.00928144 -0.00957367 -0.0160755 0.0191369 0.116219 0.0560157 -0.0393657 0.0869072 -0.0453385 -0.15059 0.0870957 0.0528307 -0.135565 0.0280591 -0.0194201 0.0212591 -0.0166526 0.0144737 0.0296618 -0.101516 -0.00367427 0.0372621 0.0128783 0.0666452 -0.0542379 -0.0208629 0.0106172 -0.142565 0.0709617 -0.0228922 -0.140009 0.113725 -0.0763208 -0.0175166 -0.066121 -0.110256 -0.0684831 -0.0205799 0.00436193 -0.104709 0.000108192 0.0233928 0.0356963 -0.0367571 -0.0958335 -0.108171 -0.0575908 0.0513705 -0.039171 -0.0442197 0.0619982 0.020507 0.15865 0.0414595 -0.0255549 -0.0114732 -0.0249667 -0.000415687 0.0279707 0.183663 0.0094657 0.036112 -0.0151852 -0.0266071 0.156467 0.0730384 0.0315827 0.0273579 -0.129579 0.0337705 0.0552817 0.0740868 0.00162203 -0.141365 0.070732 -0.00764144 0.0362994 0.0650659 0.0485811 -0.10286 0.103136 -0.0281024 -0.0176828 -0.0924999 0.0325621 0.00806469 0.0329512 0.0442858 -0.043346 -0.0550275 0.00421081 -0.110145 -2.86884e-05 0.0429512 -0.066879 0.0874362 -0.0170567 -0.0106193 0.0951774 -0.0298502 -0.0687216 -0.189689 0.100153 -0.0641231 0.0819891 0.045867 -0.0562174 0.140027 -0.0560369 -0.0589797 -0.0450048 -0.00248637 -0.0496051 0.0947886 0.0227601 -0.0715278 0.0499142 -0.00943797 -0.0726478 0.047548 0.0451748 0.0318534 0.189029 0.0252704 0.184918 0.0100329 -0.0302573 -0.0688197 0.0575936 0.0255722 -0.0845416 0.0167297 0.0296252
up -0.0643323 -0.0162624 0.0515187 0.145649 -0.121833 -0.028136 -0.160198 -0.0372292 0.0351921 0.0220467 -0.0335028 -0.0618077 0.0267169 -0.0480082 0.0419198 -0.0658849 -0.040399 -0.114686 -0.0497943 0.0129177 0.108165 -0.00837195 0.0424004 -0.0134598 -0.018121 -0.0341981 -0.0576025 -0.0530723 0.00971906 -0.0138856 0.0454478 0.0492156 0.0822299 0.0216172 -0.0980452 0.0192726 -0.0562784 0.0158078 -0.085689 -0.036556 -0.0194087 -0.11436 0.0109895 0.0142601 -0.0161614 0.00825163 0.0177116 0.0315543 0.00858931 0.0309799 -0.0526304 -0.0893746 -0.0794998 0.148877 0.034165 -0.0491393 0.0296926 0.157516 0.049621 0.103578 0.00506358 0.0762873 0.0326426 0.0792898 0.0315196 0.0405715 0.145855 0.0519522 -0.00222355 -0.0451154 0.0641287 -0.0845642 -0.00169984 0.033275 0.00279128 -0.0517278 0.0661264 -0.0327854 -0.101622 3.11606e-05 -0.216927 0.057446 0.104949 -0.0204802 -0.113259 -0.0392108 -0.0107057 -0.0310674 -0.0924253 -0.0358152 -0.138958 -0.109571 0.0767875 0.137438 0.0353483 -0.0893649 -0.0307315 0.0182817 -0.0211166 -0.00055196 0.0809833 0.0255457 0.11783 0.00809945 0.0105005 -0.00835842 -0.0234478 -0.0172614 -0.101369 -0.0197678 -0.0158444 0.0514486 0.126847 -0.0258943 -0.00918921 0.000264537 -0.0667524 0.131119 0.041142 0.000663948 -0.0912451 0.00198176 0.149465 0.0251343 0.071658 -0.0442243 0.111682 0.109843 0.0552547 0.00759971 -0.0584028 0.0859243 -0.0699132 -0.125685 0.0934938 -0.0237324 -0.0434611 -0.0988306 0.0137775 0.128198 -0.0345179 -0.0974371 0.0431853 0.0167657 0.087882 -0.00309753 -0.0817004 -0.0836173 0.0743694 -0.0302479 0.0831715 -0.00616935 0.0880192 -0.0375469 -0.054 0.0578456 0.0516259 -0.0655438 0.0744189 0.0287472 0.0184438 -0.0276832 0.0628085 -0.01576 -0.056247 0.0257464 -0.067764 -0.0973985 0.0228649 0.123253 0.0788138 -0.178472 0.0281198 0.0974187 -0.0426088 -0.0225991 0.104938 -0.0343998 0.00797454 0.0303071 -0.00378199 -0.0145305 0.139321 -0.109046 -0.0606073 -0.0399953 -0.00218996 0.0343874 -0.126387 -0.0993863 0.118904 0.0270039 0.0712072 0.0310829 0.115887 -0.000697727 -0.0997957 0.0131145 0.039686 0.123824
easier 0.0250383 -0.126988 -0.0904887 0.0991754 -0.0885073 -0.0311656 -0.0663377 0.0598643 0.0564661 -0.0330835 0.0126125 -0.0210233 0.0220369 -0.169885 0.0408979 0.0127613 0.0278014 0.0401243 -0.00250393 0.0227535 -0.0512536 -0.0146812 0.0743451 -0.012297 -0.0678682 -0.0153313 -0.0839116 -0.0158097 0.0976432 -0.0853355 -0.0240262 -0.0346359 0.0492491 -0.0183515 0.0624433 -0.0615069 -0.0893313 -0.0348746 -0.00452424 0.0986369 0.0963744 0.0220697 -0.00244865 0.0203631 0.0448725 -0.214529 0.0041582 -0.036056 -0.0167272 -0.148985 0.0420132 -0.0885798 -0.0873924 -0.0173892 0.0971955 -0.100955 0.0193258 -0.0353466 -0.117868 -0.163083 -0.0128613 0.0833012 0.0979785 0.0386199 0.0494829 -0.0652862 -0.0345117 0.0733809 -0.160473 0.0972273 -0.0994065 0.0102329 -0.06662 0.0217669 -0.0815758 0.0672815 -0.0541791 0.0194451 0.0995664 0.18834 0.0524321 -0.0889934 0.143626 0.00844144 -0.0555772 0.0229604 0.0399013 0.0625356 0.0353118 -0.0311894 0.055235 -0.115267 -0.0406424 0.00249298 -0.0844481 -0.037157 -0.0737174 0.102822 -0.0465292 0.0195029 0.0932561 -0.0790136 -0.058106 0.00697487 0.0319755 -0.0571049 -0.0470204 -0.0271163 0.00968674 0.0214978 0.0425153 -0.0549368 0.046084 0.0670269 0.141222 -0.0428533 -0.0319632 -0.0434749 -0.0268762 0.0126785 -0.0430226 0.0629141 0.0384696 -0.0972738 0.0307489 -0.0374938 0.0859969 0.0462053 0.0724786 0.0436084 -0.145352 0.21199 0.0753486 -0.0242782 -0.0421431 0.0508462 -0.0657526 0.0137848 0.0943927 -0.0361686 0.0318095 -0.0445434 0.00809131 -0.0524934 0.0611857 0.0573884 0.0834663 0.0658275 -0.0543671 -0.029408 -0.0668388 0.101283 0.00179002 -0.00161339 0.0260864 0.0149491 0.0405117 -0.077687 -0.016329 0.0588572 0.0843945 0.0010245 -0.0427411 0.0181388 0.112115 0.0246858 -0.0602954 0.00419057 0.141679 0.0125413 -0.104391 -0.102011 0.0508378 0.000777458 -0.0758493 0.000720548 0.0134834 -0.0867334 -0.099092 -0.0452708 -0.0632939 -0.0329154 0.171572 0.0870939 0.0150423 0.0436578 0.0159734 -0.103031 -0.0555411 0.0915139 -0.0541988 -0.0194291 -0.0992063 -0.0457841 0.0115149 0.0620937 -0.0637971 -0.10575 0.00341926 0.0907005
gold 0.0989787 -0.117023 0.00835437 0.0425287 0.039023 0.0313956 0.042546 0.028759 -0.0606002 -0.0202737 0.000559832 -0.0135161 0.119375 0.000807209 -0.0394235 0.0227279 0.0257377 -0.087007 -0.0577593 0.151461 -0.0648863 0.100861 0.0683644 0.107358 0.0109264 0.114142 0.0899663 0.0765581 0.13215 0.043103 -0.10322 0.0324199 -0.0641404 -0.00209194 -0.0854206 0.016937 0.0832837 -0.0881905 0.00488236 0.0262291 0.141669 0.0565782 0.033234 -0.0701367 0.0551698 0.0111742 -0.0507511 -0.0129675 -0.00789771 0.0312412 -0.0396969 -0.137477 0.0407631 0.0623079 0.0774797 -0.0941081 0.0466391 0.0317654 -0.0106808 0.0550944 0.0364708 0.0195278 0.00370139 0.0540427 -0.00706361 0.033762 -0.0181438 0.0882936 0.123387 -0.023734 -0.0812576 -0.0128397 -0.0593163 -0.0463962 0.0997899 -0.0879659 0.071331 0.0120348 -0.0120124 -0.00339509 0.051124 -0.0779528 0.015876 0.000847247 -0.0399071 -0.0451347 0.052485 -0.0462233 -0.0174248 -0.0520614 -0.0970242 0.00139222 -0.0281688 -0.0142307 0.0316092 -0.0696632 0.100453 0.0550808 0.0362117 -0.0286343 0.00842906 0.0200272 -0.023292 -0.156946 0.00108076 -0.179577 0.0333581 0.102269 -0.0879365 -0.11104 0.0598964 -0.106823 -0.0773438 -0.132306 -0.160936 -0.0815181 -0.0550436 -0.0952204 0.0450947 -0.0274989 0.0760021 -0.0409171 0.0282564 0.0890658 -0.0758522 -0.0124905 0.0569572 -0.0149743 -0.12203 0.116888 -0.0362894 -0.135257 -0.0940045 0.0849841 0.130862 0.0594132 -0.0273495 0.0590838 0.0422449 -0.0922369 -0.0645922 0.0391715 -0.0584876 -0.0503623 0.00115423 -0.100747 0.0963727 0.0294254 0.129578 -0.0373758 0.0136318 0.0131672 0.026827 -0.0229722 -0.096411 0.110276 -0.00582264 0.0634901 0.0611309 0.0475153 -0.0284704 0.0485237 -0.0670823 0.174055 -0.11621 -0.103523 0.0674607 0.00718839 0.0619571 0.0506564 -0.0563609 -0.0716333 0.049623 0.146547 0.0244433 -0.046958 -0.0171994 -0.0585955 -0.0451178 0.0668612 0.12873 -0.0435394 -0.0629088 -0.114373 -0.00445274 -0.0444454 -0.0135038 0.106617 -0.024281 -0.0752568 -0.0529208 0.00735534 -0.130203 -0.0192976 -0.0199495 0.111612 0.0267372 0.0619223 -0.0427335 0.0305962
criticise -0.0153314 0.0233258 -0.103654 0.000589438 -0.0479977 -0.0818715 0.102275 0.0560213 0.087455 0.0387692 0.113829 0.044981 -0.00959394 -0.0853482 -0.00856799 -0.131288 0.00257193 -0.0564228 -0.0619016 0.0528946 0.0120755 0.0384322 -0.117808 -0.0119242 -0.0682686 -0.0727963 0.0978452 -0.00769629 0.0815196 -0.157958 0.0056625 -0.0453842 0.0283819 0.0210904 -0.0449682 -0.143411 0.056928 -0.113898 -0.139738 -0.053706 0.128325 0.0731212 0.105084 0.0728157 0.0439348 0.0398139 0.0114051 -0.100533 -0.0931202 0.0260244 0.0614496 0.00356847 0.0650859 -0.00628976 0.0437757 -0.014513 0.0200351 0.0983789 0.029964 -0.0911401 0.0914063 -0.0331429 0.00856526 -0.0229936 0.00727756 -0.125014 0.0566569 -0.082772 -0.0681041 0.183299 0.100909 -0.00955955 0.0244982 -0.0130004 0.104333 0.141699 0.0967724 0.051486 -0.0241901 -0.057664 -0.02157 -0.0646067 -0.0100332 0.0249853 -0.0475977 0.0427603 -0.050532 0.0863763 0.0131614 0.0635012 -4.35555e-05 -0.0883756 0.00044045 -0.131302 -0.108095 -0.0564169 0.0697399 0.0307148 -0.0245507 -0.0277135 -0.0400978 -0.0381768 -0.00336775 -0.0125879 0.00598815 0.0651962 0.0290598 -0.117298 -0.000287403 -0.0503019 -0.0521172 0.0613825 0.150726 0.170404 0.114039 0.0402335 0.121807 0.0108634 -0.0866014 -0.0243863 -0.0443358 -0.0217737 -0.0103068 -0.0573644 -0.0526822 -0.0418925 -0.0613463 -0.0466938 0.055253 0.0220549 0.0886327 0.0498497 0.0115134 -0.0984838 -0.0278391 -0.000482557 0.0366768 0.136484 -0.049327 -0.100332 0.0408074 0.00691997 -0.0470697 0.0601187 0.0562212 0.0992536 0.0355669 0.0475626 -0.00622873 -0.0620223 0.0118995 0.158283 -0.071505 0.0205525 0.0181333 -0.0406921 -0.0781049 -0.0483427 0.00431394 -0.00109686 -0.0197471 -0.0601577 -0.0721789 0.126056 0.0626308 0.0237382 -0.0163779 -0.0289354 0.0722406 -0.140605 -0.109227 0.00145675 0.0296921 0.0534643 0.185571 0.157158 -0.032578 0.00733343 0.073595 -0.0136776 0.0339367 0.0610411 0.0220495 -0.0915403 0.0640641 0.0510107 -0.092333 -0.0999191 0.0957631 0.0637338 -0.0142854 0.0207533 -0.11954 -0.0864602 -0.0245744 0.0379067 0.0028107 -0.0463333 -0.0239576 0.0530326
relieved 0.0307053 0.0396818 -0.0198656 -0.0683059 -0.128707 -0.0701005 0.0932178 0.0674543 -0.013226 0.0496987 -0.137866 -0.0145359 0.0540557 0.00472195 -0.0430584 -0.0185926 -0.0112382 -0.0910433 -0.0470723 0.0225663 -0.00167306 0.0166989 -0.0574713 -0.122057 0.005145 -0.0582316 -0.0917592 0.0114495 0.114244 0.0886986 -0.0629644 -0.063357 -0.0842137 -0.0537165 -0.017634 0.168312 0.0302235 0.119972 0.203162 0.000404126 0.064273 -0.0663035 -0.0875492 -0.105224 -0.105357 -0.085675 -0.0481235 0.0383888 -0.0940266 -0.0446769 -0.112958 -0.0131574 0.0081467 0.071962 0.111081 -0.0525469 -0.0200326 -0.0126896 -0.0315131 -0.117028 0.0265096 -0.0762625 0.0489116 -0.0702025 -0.0771725 -0.0791251 0.0121231 -0.0044234 0.0022307 -0.110361 -0.0151688 0.0470668 -0.0123102 0.0108338 -0.0978392 -0.0716959 -0.0236773 -0.0396309 -0.0366646 -0.0979006 -0.0669471 -0.166373 0.110168 0.0131571 -0.00516789 0.0715217 -0.00403386 -0.0502959 0.105055 0.0827941 0.0179039 -0.113783 -0.0488957 -0.00777808 0.023963 0.0259267 -0.0639751 -0.100102 0.0234615 -0.0612851 -0.00521939 -0.0663984 -0.0835563 0.0421722 0.0233349 0.111576 0.0410218 -0.0423005 -0.105972 -0.0183162 0.0769168 -0.0354303 0.0698958 -0.142494 -0.0602722 0.0804977 0.0148889 0.152079 -0.0405783 0.0162126 0.0995478 -0.0114995 0.0284237 -0.0505476 -0.0876881 0.17156 0.0210501 0.000619384 -0.021134 0.0720147 0.136094 0.0229644 0.0823814 0.0455253 0.0484541 -0.00221624 0.124585 0.0533676 -0.0409544 -0.0871515 -0.0348917 0.0287283 0.0833437 0.042677 -0.0340223 -0.14666 -0.0726871 -0.0331081 0.0524385 0.0327063 -0.109489 -0.0392173 0.0871671 -0.0198429 0.0171598 0.0326595 0.00560618 -0.0401397 -0.0136167 -0.0416844 -0.0265783 -0.000562904 0.118083 -0.0809845 -0.0986274 0.0355735 -0.0302809 -0.121869 -0.0266342 0.0236501 0.0705117 -0.0487922 0.000599338 0.0287181 0.0957335 -0.014096 0.12747 0.0314144 -0.0677061 -0.0557894 0.0907788 0.0266856 0.0112588 -0.0711107 -0.0602352 0.119713 -0.0135433 0.0626253 0.0751855 -0.0472512 -0.0783563 0.04169 -0.0429828 -0.0324812 -0.100772 0.0527105 -0.0480119 0.127403 -0.0801269 0.0613236
dramatic -0.0701711 0.0571462 -0.0595989 0.0523813 -0.104693 -0.0383003 0.0227215 0.061928 -0.00216757 -0.0530182 0.169166 -0.0548185 -0.00270892 0.0163248 0.060282 -0.0451276 0.0792281 -0.0815833 0.13073 -0.0436427 0.00507039 -0.0103716 -0.0568007 0.0194097 -0.0267914 0.010542 -0.113331 -0.162726 0.0554071 -0.0219396 0.0473972 -0.105357 0.0833764 0.0520454 0.0643035 -0.117833 0.0539647 -0.00725227 0.0394267 0.0613648 0.0198237 -0.0449962 0.166224 -0.100263 0.0673386 0.034706 -0.155442 -0.00614522 -0.0744275 -0.0689878 -0.109287 -0.0970018 0.0633358 -0.0227928 -0.166413 -0.0427947 0.0940174 -0.0963106 0.0238352 -0.0407643 -0.0756552 -0.0319492 -0.0726214 -0.00279272 0.121199 0.00370057 0.0405726 0.0392752 -0.0439205 -0.0339607 0.0834601 -0.0228102 -0.103421 -0.0291961 -0.044744 -0.00808215 0.097957 -0.00178162 -0.0231048 0.0104272 0.0624435 0.0581122 -0.101349 -0.0470235 0.118522 0.0235528 0.000253952 -0.109947 0.0675174 -0.103811 0.0726134 0.125797 -0.0526429 -0.0476659 0.0340202 0.0127535 0.0171903 0.0796394 0.0191028 0.140679 -0.0172195 0.0175299 -0.00647711 -0.00549128 -0.0409173 0.0607584 -0.0105646 0.0604194 0.0403164 0.0730863 0.10897 0.0432302 0.029914 0.0359762 0.105652 0.019305 -0.0701715 0.101206 0.0347517 0.0435499 0.0263579 -0.111862 0.120693 0.0528902 -0.151803 -0.0222929 0.139502 0.0776548 0.00812716 0.0247003 -0.0756017 0.0363863 0.0598116 0.0340277 0.0503495 -0.0437552 0.00341411 0.100359 -0.0453015 0.0154649 0.0155057 0.0567647 0.0279514 -0.0555699 0.0242815 -0.0175271 0.0587816 -0.015752 -0.0794375 -0.00342678 -0.0806664 -0.0416712 0.0709234 -0.0222857 -0.0521322 0.142604 -0.106712 -0.0850087 -0.0633419 0.0913918 0.036298 0.0636554 -0.13727 -0.0118333 0.0439458 0.0183625 0.0167943 -0.0494976 0.143351 -0.0196385 -0.0970516 -0.0565657 -0.00151322 -0.0120802 -0.205687 -0.0204491 -0.131191 -0.111634 -0.126652 0.0317175 -0.0553316 0.0615345 0.100466 -0.0317644 0.111671 -0.052487 -0.0298042 0.0101487 -0.042997 -0.0483181 -0.082608 0.00221417 0.0288589 0.0100693 0.0352478 0.0209345 0.0277942 0.00953071 -0.0666129 -0.0125506
rugby 0.0779724 0.101608 0.0957377 -0.0258041 -0.0214782 -0.0692129 0.0385384 0.0105377 -0.000726305 0.106753 -0.0455257 -0.110582 -0.0547953 -0.0326204 0.0343186 0.0633103 0.079927 -0.061025 0.0360587 -0.0115252 -0.0248607 -0.111518 -0.0690099 0.00398494 0.0219612 0.0792318 -0.0351157 -0.038449 0.15192 -0.076847 0.00409499 -0.0291758 0.071433 -0.0797675 0.00336186 -0.0915734 -0.0765897 -0.0570929 0.00573276 0.112374 -0.0481513 0.0443123 0.0452875 -0.0294297 -0.0409635 0.0402136 0.000391716 -0.080453 0.027888 -0.0320511 0.0707364 0.0356005 0.00175615 -0.053823 -0.0708654 0.0282187 0.0866771 0.0297942 -0.0449177 -0.0747509 0.0096219 0.0526784 -0.0132263 -0.0179691 0.0538328 0.0182523 0.122487 -0.138669 -0.0865037 0.0310269 0.0369501 0.0601493 0.051223 0.0665476 0.0156117 -0.0481224 -0.0366055 -0.150737 0.18238 -0.0554181 0.0626421 0.0444256 0.0235138 -0.106064 -0.0402907 0.0411288 -0.0125088 -0.0268691 -0.0250078 -0.053505 -0.024331 0.10653 -0.0579921 0.0791757 -0.0198525 0.126851 -0.00950497 0.0396222 0.0881749 0.0750456 0.0156626 0.0487994 -0.0245744 -0.0397534 -0.130475 0.128003 -0.0490352 0.0156326 -0.0246403 -0.0603614 -0.0425139 0.0642288 -0.0793166 -0.1408 -0.0169792 0.157088 0.188807 0.0441053 0.0461952 -0.0226836 0.000290326 -0.0185897 0.06753 -0.0334475 0.0361166 0.00515106 0.00690875 -0.00222797 -0.168255 0.0135277 0.0542448 -0.094035 -0.177256 0.058565 -0.0453171 0.0544805 -0.0178224 -0.0185336 0.00120691 0.0226224 0.0991364 -0.0107135 0.0138984 -0.0156094 -0.0553566 0.0394523 0.0194868 0.109195 0.0615714 0.109639 -0.104627 -0.0673745 0.0750097 0.0497692 0.0620718 0.124465 0.0879248 0.00277278 -0.0396346 0.102082 0.105619 0.0428666 -0.0687798 0.108151 -0.0838034 -0.0230124 -0.0242985 0.0537432 -0.0574364 0.022776 0.0618114 0.0606383 -0.112714 -0.0301222 0.0390487 0.0495749 -0.00490584 0.048697 0.0720401 0.0524391 -0.0945215 0.02818 0.0117396 -0.0532784 -0.0219212 0.0532532 -0.0784993 0.177774 -0.00284911 -0.109079 0.0347225 0.0548217 0.131111 -0.0333248 -0.0938599 -0.0821369 -0.057312 0.142989 -0.154911 0.0317025
rediscovered 0.0105252 -0.0812949 -0.0487092 0.0580307 0.00590014 0.102278 0.0430242 -0.0239329 -0.0484663 0.0954434 0.0452294 0.00527523 0.0398312 0.00401762 -0.0640117 0.0589802 -0.0184802 -0.0397601 -0.125115 0.0208041 0.0613892 -0.0300011 -0.0450183 -0.105176 0.0478759 0.00928931 -0.0497977 0.104258 0.014249 -0.0149762 0.0294279 -0.0583189 -0.109872 0.0289346 -0.0587099 -0.0615646 -0.0400072 -0.0385447 0.0690783 0.00383985 -0.022138 0.0638737 0.0062398 -0.0911155 0.0868196 0.101788 0.07766 -0.00825865 0.080938 -0.00623588 0.11432 0.0674651 -0.011484 0.0245313 -0.109827 0.00433451 -0.034548 -0.0504636 -0.0966749 -0.0170606 -0.0530448 0.102331 -0.0406489 -0.0325943 0.0583604 0.0454827 -0.104121 -0.0593767 -0.0511541 0.145302 0.00786218 -0.0451558 0.0484569 0.0339215 -0.0240733 -0.0401358 -0.171357 0.0304223 -0.045208 -0.071674 0.0633552 0.0857952 -0.000417921 0.0647715 0.0572206 -0.0635451 0.0418024 0.101127 -0.0338719 0.010182 0.0314015 0.0551167 -0.0279221 0.0217966 -0.0915439 -0.0208304 -0.0306771 0.0342543 0.0376641 0.0311994 0.0130283 0.0605358 -0.0843052 -0.0624552 0.0118117 0.122254 0.15387 -0.0718859 0.0208369 -0.0250256 0.00630854 -0.135249 0.0217789 0.0882575 -0.0869184 -0.0749387 0.0946583 0.167038 -0.0546612 0.11587 -0.0514819 0.005962 0.153238 0.0160441 -0.0135408 0.0554451 -0.0348099 0.168887 0.00234586 -0.0366547 -0.100037 0.0503062 -0.0559675 -0.103035 0.0876677 0.145374 0.00166233 0.0156441 -0.123315 -0.0449764 0.0779851 0.141858 0.0115646 0.0164556 0.0736343 -0.053439 0.0645333 -0.118979 -0.161141 0.0145661 0.0868605 0.0317592 0.078126 -0.0263428 0.0347244 0.0851259 -0.0289869 0.0329019 0.0876119 0.149243 -0.0465446 -0.0690448 -0.1031 -0.0504001 0.0334054 0.0180987 -0.0668838 0.0104702 -0.0854969 0.0648835 -0.119899 -0.0360875 -0.0278263 0.0357312 -0.0518219 0.0984099 0.0644739 -0.0380315 -0.0499251 0.0783857 -0.0575972 -0.0572063 -0.0782886 -0.0182022 0.0436874 -0.119065 -0.035727 0.0772776 -0.0426087 -0.00239968 -0.0652659 0.0212552 0.104636 -0.153538 -0.00412202 -0.110287 -0.116928 0.112884 -0.0353814 -0.0171395
warm -0.10635 -0.0824909 0.0343124 -0.104108 -0.00726066 -0.0180914 0.0871256 0.0331328 0.00989382 0.0252308 0.0614471 -0.082582 0.00872216 -0.0355278 -0.0236906 0.00525216 0.0642629 0.0435803 -0.109691 -0.0939495 0.0954007 0.038314 -0.0233599 0.0228283 -0.0740157 -0.064154 0.0267038 -0.0216432 0.122348 0.0710814 0.023176 -0.00316473 -0.0212489 -0.17628 0.00359191 0.0243306 0.0386585 0.0551092 0.0305883 0.0349382 0.0151672 0.0353515 0.0542007 0.0296546 -0.0358729 -0.00238125 0.00507551 -0.00139002 -0.0263922 -0.0743939 -0.0685272 0.0958354 0.114584 -0.210926 0.036631 0.0153109 -0.0345166 -0.126436 -0.0933983 0.102878 -0.0577564 0.11276 -0.102057 0.120312 0.0199714 0.00685093 0.0480236 0.0369422 -0.0442256 -0.00378116 0.188914 0.0506692 0.00216316 0.10356 -0.0819546 0.0999108 0.00350425 -0.10749 0.0659328 -0.0240831 0.0747972 0.178063 0.0646633 -0.0973516 0.0429273 -0.0718344 -0.072151 0.0119152 0.0128542 0.0564485 0.0828904 -0.0549395 -0.0583603 -0.0727253 0.0443389 -0.0442163 0.117756 0.0262341 0.0678752 0.0515056 0.0665715 0.0811972 0.0207176 0.0433143 0.108145 -0.0370887 -0.00950363 0.0528032 -0.202572 -0.150916 0.0726345 0.132947 -0.0407579 0.0695678 0.0354432 0.0445443 0.0763237 -0.0603747 0.0545828 0.0589967 0.114839 -0.0570964 0.0932322 -0.051564 -0.0530926 -0.091731 -0.00285265 -0.0523788 0.0114836 -0.0327856 -0.0231287 -0.136445 -0.0291661 0.0214054 0.103459 -0.0307903 0.0704642 0.0360673 -0.0624521 0.0473225 -0.0673731 -0.0336077 0.0306961 -0.0742671 -0.0445606 0.0663135 -0.00927084 -0.070956 0.0422954 0.0416337 0.0146272 0.0246198 0.0074075 -0.0272539 0.0339483 0.0214577 -0.0557874 -0.136395 -0.0480626 -0.00927679 -0.129342 0.00845234 -0.088032 -0.076137 -0.075993 -0.0166498 0.00961572 -0.0556497 0.0510599 -0.0797037 -0.0467006 -0.0628679 -0.125559 -0.112524 -0.0871222 -0.0329909 0.0087324 0.0088239 0.0484221 -0.155093 0.0682945 -0.046427 0.0468819 0.0166771 -0.0327801 -0.0314212 0.019839 0.00180757 -0.0423803 0.188479 -0.0533517 0.0196089 -0.026601 0.0151061 0.0139729 0.107079 -0.0298969 0.0820931 0.036831 0.0176492
head 0.0874643 0.064388 -0.0627321 -0.122119 -0.0501505 -0.0853 0.0184881 -0.0278751 0.0801699 -0.00201555 -0.1913 0.0722482 0.0203876 0.0496151 0.154749 -0.0205066 0.0443515 -0.159127 0.0960122 0.11658 0.0046107 0.0458232 -0.049947 0.102126 0.134183 -0.0519854 0.0382654 -0.106821 0.0103479 -0.0840938 -0.101644 0.028186 -0.0815354 -0.0262074 -0.0190182 -0.090384 -0.0219711 0.0638519 -0.116076 0.0780751 -0.00489962 -0.129578 -0.0916127 -0.0417377 -0.144179 -0.0203603 -0.0127308 0.0456444 -0.113359 -0.00648063 0.00750732 -0.134208 -0.0478061 0.073794 -0.0432033 -0.00410511 0.0083789 0.0320488 0.0461636 -0.116238 -0.0342878 0.0692192 0.0385616 0.00425346 -0.0416006 -0.128279 0.120572 0.0284409 0.0491845 -0.0239788 0.227394 0.122309 -0.00837493 -0.0483657 0.0602408 -0.0952993 0.0815635 0.0184348 -0.00668317 -0.0973633 -0.00781406 -0.0661385 -0.0853515 -0.0210181 -0.0582861 0.0405753 -0.0555177 -0.0317665 -0.0385494 -0.0325219 -0.0383206 0.090991 -0.0888012 0.0934547 -0.118797 0.0138968 -0.00367983 -0.0777646 0.0411053 -0.0979868 0.119765 0.114981 -0.0549219 -0.0625732 -0.00779699 0.0829197 0.000885858 -0.00889179 0.0340927 -0.0531179 0.0243967 0.0817336 -0.0312637 0.00157112 0.0827976 -0.0507225 0.0002441 0.07653 -0.0597882 0.0440985 -0.0293214 0.0458812 0.0705161 -0.0681234 -0.0305582 0.0536549 0.0720851 0.078114 -0.0326021 0.148421 -0.044703 -0.0451269 -0.0222255 0.0252996 0.03401 -0.00563278 -0.082927 -0.0380044 0.113143 -0.0108684 -0.0155596 0.0427186 -0.12987 -0.00860567 0.00114963 0.076583 0.0262773 -0.0437649 0.0229626 -0.0111596 0.00660119 -0.0922413 -0.0609864 -0.0726852 -0.141981 -0.0394939 -0.0233991 -0.0226696 0.0643387 -0.0129834 -0.0263935 0.0735545 0.0405787 -0.0159072 -0.0659608 0.00692499 0.0114154 0.128627 -0.0309588 -0.0340067 -0.0944532 -0.0301553 -0.0176913 0.0526743 0.129133 0.0126233 0.0193886 0.0697631 0.00513375 -0.0155733 0.0249538 0.0948135 -0.0486429 -0.00822452 -0.10233 -0.0617666 -0.0361907 0.0247105 0.0874249 -0.0136833 0.174105 0.0841799 -0.122118 0.0660655 -0.0135111 -0.030144 -0.0278505 -0.0580922 0.0600477 -0.0165359
eighth -0.0515964 -0.083598 0.0725836 0.143979 0.0121849 0.0513631 -0.0311151 0.00174352 -0.0151824 -0.0168573 0.0197355 -0.0243628 0.0279267 -0.0852228 0.0293811 0.0364265 0.000957031 0.106451 0.0499843 0.0644097 0.014523 0.0963583 -0.11262 -0.00348472 0.0504136 -0.0185679 -0.00891618 0.103748 -0.0294228 0.0298144 -0.0407737 0.0132956 0.0443123 -0.0792366 0.0565893 -0.086256 0.025668 -0.0286415 0.0833823 0.142834 0.109436 -0.0458322 0.000102604 -0.0788247 -0.0280315 -0.024404 0.0644583 0.115756 0.046225 0.106265 0.0533215 -0.0394871 0.0554805 0.0671082 0.0247075 -0.0918927 -0.0350013 0.0347875 -0.0730128 -0.0403609 -0.0291856 0.145472 0.0761767 0.0151125 -0.00220454 0.0795572 0.124331 0.0127921 -0.101023 0.00164486 -0.112052 -0.0303611 0.0801849 0.0612534 -0.104385 0.0141153 0.0821664 0.0730359 0.127695 -0.0135194 0.0342955 -0.0036404 0.00437581 -0.0826146 0.0726488 -0.0487453 0.0752488 -0.0368857 0.083399 -0.00445097 0.0674324 -0.169048 -0.0625144 0.0252627 -0.0734759 -0.0754455 -0.0459514 -0.0715347 0.0569065 0.198032 0.0131132 0.0299867 0.0579349 0.0441781 0.102796 0.189809 0.0226519 0.0270124 0.123554 -0.0234344 0.0456388 0.0641139 -0.0575009 0.0540914 -0.0662426 -0.132619 0.0201173 0.0756141 -0.121199 -0.0410348 -0.0230767 0.0392086 0.137521 0.0983478 0.102031 0.0755306 -0.0515709 0.0635167 -0.0844971 -0.0885234 -0.0872128 -0.11527 -0.0756642 0.0744152 -0.0498401 -0.0275874 -0.018351 0.0442789 0.00809577 -0.0632805 -0.0804838 -0.0326963 0.0810078 0.00566 0.0795927 0.022814 0.0477108 -0.00614283 0.0807622 -0.0134558 0.0568154 0.00256067 0.0828691 0.000427928 0.0363017 -0.105459 0.0248545 -0.0545547 0.0683473 0.0700987 0.143656 -0.0320278 0.0152932 -0.0433865 -0.1394 0.133821 -0.0516443 -0.0319781 0.070606 -0.0113283 -0.0458727 -0.0731748 0.0195567 0.0771664 0.0511369 -0.038159 0.0296724 0.0864666 -0.0460957 -0.0603201 0.0672457 -0.0475707 0.0669383 0.119995 0.0162592 -0.106795 -0.0226974 0.0608802 0.0254886 -0.0152221 -0.0320792 -0.00648089 0.108553 0.0249978 -0.077744 -0.0163904 0.00662186 -0.130108 -0.0736568 0.139587
cubic 0.0600091 0.0178632 -0.0174521 -0.0422755 0.0585976 -0.0501359 -0.0794402 0.0511307 0.0772215 0.0177352 -0.0187886 0.086266 -0.0090917 0.030321 -0.0128657 -0.0266575 0.147154 -0.126679 0.0658929 -0.0278181 -0.0284141 0.122816 0.0599357 -0.123021 0.0391364 -0.0573177 -0.0977658 0.00263345 0.10002 -0.0911034 0.0916792 -0.0671653 -0.047709 0.0452375 -0.101041 -0.143483 -0.098102 0.09597 -0.00259804 0.0676795 0.0436026 0.00324509 -0.133133 -0.124015 0.104999 0.0428141 0.137052 -0.139842 0.0628171 -0.00831129 -0.131101 0.0755162 0.0454728 -0.0678338 0.0466779 -0.110477 0.0235476 0.0557839 -0.0901687 -0.0335448 0.0431625 -0.0139756 0.108854 -0.0475448 0.0799556 0.101674 0.0190924 -0.0875016 -0.104141 -0.0164671 0.00996202 0.0361377 0.01313 -0.0227308 0.0939627 -0.0468004 -0.0146708 -0.051252 0.0541495 0.0795059 -0.0065518 0.099526 -0.00878812 0.0291511 0.0641087 -0.0904761 -0.117459 -0.104112 0.0985357 0.104388 0.0320796 -0.0140421 0.115105 0.0160668 -0.0377112 -0.10685 0.00770721 0.0164442 0.00734137 -0.0566092 0.0648785 0.0493764 -0.0524998 0.0935773 -0.0310097 0.0620001 0.0249418 0.00273123 0.00531963 -0.0439169 -0.0881175 0.0855796 -0.0735967 0.0690963 -0.0204312 -0.0855011 -0.0415934 -0.0169905 0.00295773 0.000336255 -0.0282747 -0.118331 0.0162084 -0.0021951 0.0444038 -0.144254 -0.0307312 -0.00365877 -0.00492724 -0.0408865 0.0622922 -0.113935 0.0106604 0.115291 -0.033719 0.0488728 -0.0529019 -0.0916205 -0.0546164 0.0173176 -0.0496275 -0.0396744 0.0971429 0.0257501 0.0440043 -0.0244532 -0.0377737 -0.128248 0.0297981 0.0209593 -0.107086 0.0213434 -0.0184651 0.00932808 -0.0871317 -0.0586376 0.114268 0.0616153 0.0126553 0.0784577 0.0408031 -0.0374315 -0.064549 0.112141 -0.00786118 -0.0699862 -0.115278 -0.0903618 -0.120843 0.0557201 0.0186622 0.0502673 0.112653 -0.16069 0.0887125 0.0499182 0.0388086 0.086202 0.0485682 0.115966 -0.0565895 0.083875 -0.109307 -0.0701872 -0.0288755 0.0619774 -0.0371346 0.111007 -0.0225787 -0.0453902 0.00833577 -0.050774 -0.0585971 0.0677315 -0.0216939 0.0404541 -0.107808 0.0415521 -0.0974977 -0.0421882
sales 0.0523346 0.0398827 -0.0294872 0.0433833 0.0121655 0.0566415 -0.021333 0.0525483 -0.0177414 0.0226525 0.00222682 0.0711777 0.0303679 0.135418 0.0974554 0.0332238 0.0991822 -0.141908 -0.0234086 0.00697412 -0.174049 -0.0369526 -0.0124332 0.056518 -0.00010069 -0.0974343 -0.0464131 0.0508349 0.0130027 -0.122589 0.0774994 -0.0581732 -0.0738244 0.0303683 0.051558 -0.0735442 0.0423777 -0.0893202 -0.0178085 -0.07944 -0.0211875 -0.117014 0.0157996 0.110698 -0.0327195 -0.0917081 0.0225213 0.0139483 0.181914 0.116635 -0.148761 0.0134854 0.0132454 0.190333 -0.00810996 -0.0797713 -0.124022 -0.0392275 0.0520368 -0.0904094 -0.0250999 -0.0288954 0.00997438 -0.0364821 0.0268653 -0.0149118 -0.0189028 0.0570596 0.100252 0.0130449 0.0610087 0.0755126 -0.0472002 -0.00972833 -0.0115563 -0.0477904 -0.000951446 -0.11746 0.0452203 0.130192 -0.0672411 0.198762 -0.0682431 -0.0639788 0.0196399 0.0679287 -0.0167778 -0.0824639 0.0292866 0.0324355 0.0564215 -0.0413789 0.013529 0.102227 -0.0719628 0.0383227 0.0937252 0.0465313 -0.0266562 -0.0741793 -0.0454279 0.0942054 0.00505607 -0.0195398 -0.00327017 -0.0429598 0.00460076 -0.0953994 -0.0641195 -0.010317 -0.0508 -0.00674897 0.00331452 0.0419548 -0.0509494 0.0399496 0.0302347 0.11452 -0.0242618 0.0987338 -0.0640126 0.00305216 0.0580161 0.0428133 0.0832528 -0.0918344 0.0374249 0.0195698 0.00803105 0.00382451 0.0932994 -0.0551135 -0.00179456 -0.0899525 -0.00298899 0.0390289 -0.035632 -0.00222979 0.13778 -0.0246096 0.044849 -0.0355727 -0.0209184 -0.0472165 0.0370015 0.00791786 0.167666 -0.114254 -0.104643 -0.0427978 0.061691 -0.10715 -0.048527 0.00948434 -0.0352867 -0.103561 -0.0556867 4.53196e-05 -0.121568 0.119523 -0.114769 0.0406883 0.0299952 -0.0102443 0.0907982 0.0961241 -0.0922848 -0.0581215 0.0453285 -0.0638655 -0.191463 -0.0949413 0.0435813 0.0408415 -0.0727773 -0.0785146 -0.00389506 0.0105391 0.0242011 -0.016417 -0.0395063 -0.00971368 -0.00505489 -0.0772372 -0.0926565 -0.0459213 -0.0683847 0.1446 0.0116429 0.0347424 0.0858051 0.0328997 0.122363 -0.0590802 0.0610129 0.0670787 0.134545 0.0353323 -0.0402569 0.0478381
connected -0.0574907 0.146809 -0.0319471 -0.128275 -0.0284236 -0.0846907 0.112054 0.117232 -0.0543787 0.075652 0.0428949 -0.0281763 -0.00483143 0.0380828 0.000676879 -0.0235221 -0.00409192 -0.0605974 0.024588 0.0964232 0.121682 0.0782947 0.0294398 -0.0696722 0.0344755 -0.0249996 -0.0486501 -0.0407749 0.0390418 0.0375759 -0.0172044 -0.112832 -0.00515314 -0.0260253 0.0756793 -0.134063 -0.0446764 -0.117197 -0.0262318 0.185884 -0.0126532 -0.0219908 -0.0435596 -0.0286034 -0.00258157 0.0214153 0.0694188 -0.0881345 -0.0171669 -0.0207053 -0.0517473 -0.00228247 0.0236951 -0.0625302 -0.0783714 -0.103086 0.091657 0.133246 -0.0418044 0.0273372 0.0289032 0.0508365 0.0533514 0.028098 0.00283872 0.125065 0.0513756 0.0717474 -0.0705184 -0.0487451 0.0386077 -0.0324257 -0.0454643 0.105411 0.0165986 -0.0442481 0.0518158 0.0332871 0.00205432 -0.0895241 -0.00356285 -0.0196682 0.103881 0.0430933 -0.022842 -0.0552588 0.0484466 -0.0154079 0.0674022 -0.014868 0.143365 -0.0773675 0.164799 -0.0715829 -0.12328 -0.0311875 -0.0217658 -0.0319468 -0.0959069 -0.0250155 -0.0801731 -0.130035 -0.0149797 -0.0390646 0.0232565 -0.141942 0.0175148 0.0826868 0.0400109 -0.0414164 0.092967 -0.0213446 0.065016 -0.0724165 0.0304016 0.0369408 -0.00560391 -0.0165459 -0.0949667 -0.0275027 0.100073 -0.0615713 0.0276399 -0.0330279 -0.0795625 -0.0111433 -0.0477484 0.0147666 0.11862 -0.0905279 -0.0619333 0.097662 0.0639853 -0.148444 -0.116334 -0.178375 -0.026614 -0.052088 0.0218838 0.00403993 0.160538 -0.00683221 0.0248216 0.137498 0.0131313 0.0709681 -0.102584 -0.029542 0.0870064 0.0322022 -0.0198223 0.0778984 -0.054802 -0.0846288 -0.0294672 0.0101719 0.104228 0.059285 -0.0766718 0.0485245 0.0780999 0.0300656 0.0725014 -0.085458 -0.0623067 0.000547087 0.046907 0.0416689 0.0424592 0.024268 -0.00564568 0.0844919 0.0634549 0.00642818 0.000657913 -0.119371 -0.0402955 0.0944761 0.00108288 0.172423 0.0827566 0.000643517 0.0570594 0.051406 -0.0600274 -0.0596099 -0.0631573 -0.060152 0.0429087 -0.0287844 -0.0582913 0.0389192 0.0387784 -0.0344716 -0.175802 0.0351985 -0.15491 -0.0333805 -0.0273175 -0.00990161
grammy 0.141876 0.153562 -0.00926485 -0.054088 0.0798018 0.0142279 0.0862678 -0.115164 0.000589927 0.00262218 0.0953607 -0.022913 0.115868 -0.0880846 0.0603807 -0.0207855 0.159641 -0.0798927 -0.0153192 0.0703976 0.0336278 -0.00786342 -0.0424277 -0.058971 0.0398893 -0.0781744 -0.0961762 0.198812 -0.00466562 0.00831627 0.0217123 0.0993461 -0.0923671 -0.0834513 0.0683856 0.1349 0.0216773 0.0808727 -0.065845 0.0197383 0.0623453 0.00039581 -0.138127 -0.059658 -0.0285823 0.00926587 -0.104081 -0.00819463 -0.100069 -0.0312596 0.0275548 0.131062 0.0940215 0.0552881 0.0214973 -0.0498375 0.0042859 -0.101173 0.123936 0.0209292 -0.0762336 0.0476984 0.11857 0.111744 0.0350727 0.0158445 0.0631463 0.0219671 -0.0944119 -0.082293 -0.0874965 -0.039333 0.0355898 0.027629 -0.00556168 -0.162968 -0.0798535 0.0788892 -0.0524526 0.0460343 -0.042438 0.0372434 0.0709071 0.0546533 -0.0255221 0.0138693 -0.0234969 0.0422507 0.15484 0.054941 -0.000314304 0.0485674 -0.0468123 -0.0183312 -0.0280323 0.0950222 -0.0615861 0.0875789 0.145859 -0.0457091 -0.0044194 -0.110878 0.0485981 -0.15947 0.137634 0.0291009 -0.0485403 0.0521555 -0.046091 -0.0511697 -0.00459039 -0.0951922 0.053177 -0.128312 -0.0917265 0.068513 0.0448548 -0.0277381 -0.12653 0.0443011 0.0746714 -0.0108498 0.158146 -0.000943733 0.0804298 0.0515806 0.032957 0.035319 -0.0512811 0.0266161 -0.00337512 -0.000782463 0.10584 0.00391868 0.0374584 0.0172821 0.0974142 0.0146225 -0.0454238 0.0162519 0.159925 -0.0468256 0.0555479 0.0475394 0.0400704 -0.0905251 0.140483 0.0620484 -0.0565271 0.0229523 0.0651289 -0.095245 -0.0719404 -0.126754 0.0162148 0.0561839 -0.130798 -0.0153793 0.0298835 -0.0475574 0.00810227 -0.0182258 0.030015 0.0170918 0.0145298 -0.0277426 -0.0201011 -0.0123422 -0.0266207 -0.0239671 0.00264339 0.0178572 -0.0631834 0.010923 -0.10955 0.107838 -0.0464179 -0.0796582 0.0546878 0.0135483 0.0537974 -0.0532619 -0.0723858 0.0141174 -0.0459756 -0.106085 0.0335394 0.0194208 0.01119 0.037647 0.0142019 -0.0248008 -0.0316294 -0.0207979 0.023692 0.0577508 0.0583675 2.56925e-05 0.0639353 0.0588139
daily 0.0847359 -0.0379249 -0.0149225 -0.00490027 0.0435168 -0.104428 0.0017303 0.0126246 0.107045 0.0963866 0.129915 -0.091541 0.0543844 0.0263781 0.110888 -0.068092 -0.0573606 0.0260943 0.00533351 -0.00226083 -0.00365586 0.0050857 -0.00792957 -0.0771526 0.0688524 0.014656 -0.0188435 -0.150092 0.0222311 0.00575398 0.0311339 -0.0778508 -0.052522 -0.108708 -0.101188 0.0635482 0.0917994 0.0479446 0.00788452 -0.0135067 0.073667 0.0437608 -0.130055 -0.0306243 0.103008 -0.0702742 -0.1361 -0.0344921 -0.0486079 0.00895192 0.0646477 -0.0901802 0.0056854 -0.0385152 -0.0571207 0.0719438 0.137305 0.0729328 0.00968383 0.0168149 -0.0770667 0.041731 -0.0346414 0.0668979 -0.0414781 0.119535 0.0886398 -0.0857171 0.00194278 -0.0563726 -0.0263097 0.0163836 0.232434 -0.0262185 0.051539 0.138304 -0.069579 -0.152371 -0.0189598 0.0626633 0.0219305 0.120204 -0.068429 -0.0842032 0.0169524 -0.0549269 -0.0101172 -0.0586364 -0.129978 0.030172 -0.0121967 0.06119 0.0763192 -0.0112444 0.00606241 -0.0100404 0.0626222 0.0256438 -0.117043 -0.0223796 -0.00320334 -0.109313 0.0539071 -0.0267055 -0.0774828 0.065161 0.102208 0.0744518 -0.037386 -0.0451307 -0.00636051 -0.129707 -0.0252359 -0.0787691 -0.0368224 -0.0269848 -0.0379109 -0.0462903 -0.0325617 -0.0378486 0.0478022 -0.0337062 0.052741 0.0291239 -0.0605867 -0.147786 -0.188143 -0.0588358 0.0398025 0.0377526 -0.0236151 -0.182918 0.00922726 -0.161833 0.0516211 -0.0560328 -0.12074 -0.0378247 -0.00743072 0.0620519 -0.0291125 -0.0214345 -0.0474598 -0.111498 -0.0711957 -0.0396258 0.00642053 0.0236167 -0.125154 -0.127602 -0.0385834 0.0542256 0.0323887 0.0575537 0.0498485 0.0100004 0.0463964 0.101805 -0.0572038 0.0976582 -0.0367097 -0.0444385 -0.0259827 -0.00044958 0.00528927 0.109965 -0.0299088 0.105569 -0.0357642 -0.0377693 -0.0703273 -0.0279501 -0.0974683 0.0857635 0.159333 0.0489104 -0.104016 -0.027854 -0.0547354 -0.0162472 -0.0135215 -0.102201 -0.0133469 -0.0320622 -0.00613713 0.010796 -0.078315 -0.00173902 0.0284944 0.0755391 -0.0224039 -0.0879432 -0.0212 -0.00466785 -0.00641685 0.0220707 0.0250611 0.0369725 0.129086 -0.0295317
kasabian -0.00141581 -0.0796795 0.0882046 -0.0421304 -0.0698129 -0.133992 -0.116566 -0.0664256 0.0478829 -0.00287498 -0.0428506 0.0562328 0.0376276 0.0836849 -0.0915222 0.00337284 0.0739429 0.0420609 0.10377 0.0549705 -0.0301152 -0.11101 -0.0546869 0.0777465 0.112268 0.000967245 -0.0316277 0.0663651 0.00786998 -0.00259409 -0.00328823 0.0762461 0.0633582 0.0731461 -0.0296819 -0.087074 -0.0193125 -0.0217557 -0.13666 0.0533574 -0.096257 -0.107014 0.0104044 -0.0548136 0.0571975 0.0239038 0.0513469 0.0713145 0.0112868 0.0629012 0.0376922 0.0205382 -0.0545235 0.0508283 -0.0500169 0.0261576 0.00110826 -0.0318203 0.0894784 0.0738336 0.0366352 0.0194263 0.00812347 0.153378 -0.00251524 0.0190699 -0.0683942 -0.113001 -0.0366181 -0.086745 -0.125577 -0.125278 -0.0328658 -0.122522 -0.0663109 -0.00578822 0.0924029 -0.0293804 -0.0351503 -0.0510693 -0.0967148 -0.11896 -0.0343683 -0.0841042 0.00280458 0.142288 -0.0831385 -0.0909508 0.0866924 -0.112372 -0.0656949 -0.0390902 -0.112398 0.126379 -0.0436709 -0.0272523 -0.0365412 -0.0857573 0.149132 -0.0307526 0.0949408 -0.0199489 -0.0147437 0.0860374 0.0308982 -0.0185834 0.0392906 0.0535748 -0.020519 -0.069683 -0.147364 -0.101399 0.103331 0.0807007 0.0610873 -0.0658789 0.0571393 -0.0376041 -0.0625731 0.0802962 0.059841 -0.0174536 -0.0267305 -0.0181203 -0.0628358 0.0696597 -0.041686 -0.00973602 -0.0612395 -0.0152812 -0.0568207 -0.0859134 0.0312127 -0.000434746 0.0295614 -0.0705607 -0.00877505 0.0339462 0.0599317 -0.083191 0.0722145 0.0560605 0.0167281 0.00224124 -0.0648975 0.0620993 0.0884515 -0.0251482 0.0496677 0.149084 0.0502631 0.0568255 -0.0380555 0.070934 -0.109117 0.0443301 0.0524783 -0.135415 0.115381 0.0628316 0.00725415 -0.0229088 0.0737439 -0.119523 -0.105434 -0.061852 -0.107816 -0.0345442 0.0728213 0.0810959 -0.0626428 0.00603436 -0.0621792 -0.0960941 -0.0645858 0.0729802 0.0579421 0.00210122 0.0571086 -0.0136879 -0.115343 0.0318155 -0.0760491 0.0847171 0.083523 -0.00398921 -0.0882602 0.0275225 0.0753517 0.00581218 0.0174381 0.0808385 0.109343 0.109276 0.125911 0.0355094 -0.0886983 0.0106133 -0.0103796 0.112037
break -0.0834427 -0.0690034 0.131057 -0.0573071 0.0320725 -0.0534772 0.105194 0.100503 -0.00669429 -0.00979842 -0.0310236 0.0529397 0.0370001 -0.056921 -0.0231294 -0.0201338 -0.0114482 -0.00243062 -0.00901191 -0.0358117 -0.0887363 0.10893 -0.0610461 0.00614601 -0.0525007 -0.0934688 0.0057778 -0.0685471 0.00215974 0.0609077 0.0458968 0.0499995 -0.0393735 -0.0879878 0.0285534 -0.0942342 -0.0255097 -0.0440027 -0.10808 -0.122873 -0.166964 0.0795118 0.0912963 0.0102018 0.052329 0.146077 0.115489 0.00355331 -0.02227 0.0987764 -0.0246551 -0.0418996 -0.0459417 0.0973706 0.0729334 0.0503067 -0.05054 -0.00493407 0.0668883 0.105061 -0.202325 -0.00178203 -0.0529424 0.0371319 0.0956896 0.0792509 -0.0731722 0.000486278 0.1204 -0.00996866 0.00975569 0.0128833 0.0146293 0.0214657 -0.0496331 -0.0436223 0.0289845 -0.0920766 0.00621197 0.144106 0.0648088 0.0793902 0.0799064 -0.0161381 -0.072258 -0.0460625 0.0641485 -0.0301075 0.0111663 -0.00512992 0.0642437 0.105914 -0.0276076 -0.0724266 0.0409163 -0.0791801 -0.0114327 0.00677889 0.024988 0.0541377 -0.00908194 -0.0822329 -0.00249612 -0.058637 0.0481261 0.0257396 0.0588299 0.0384915 -0.0779117 -0.0264644 -0.180393 0.0211137 0.0625891 -0.0245899 0.0366294 0.0730545 -0.0559263 0.119792 0.0500291 -0.0674811 -0.0982622 0.0820106 0.00855433 0.0088197 0.096638 0.145339 -0.0255384 0.0354757 -0.0464662 0.0492938 0.00397252 -0.0420202 -0.0226556 0.0657956 -0.0246561 -0.0755768 0.0427816 0.00417538 -0.0228205 0.0778272 -0.0880131 -0.00803156 0.00273773 -0.0729836 0.186704 -0.0572831 -0.0963875 0.0703232 -0.0020245 -0.0839609 0.0515989 -0.107586 -0.0964591 0.0711077 0.0349924 0.0707534 -0.0649711 -0.0542679 -0.0557909 0.0830022 0.14139 0.0876245 0.000413315 -0.0494627 -0.0177166 -0.0496252 -0.170328 0.000791872 0.0079267 -0.0189683 0.0802002 -0.183033 -0.0173447 -0.0472165 -0.00594962 -0.0413837 0.0892351 -0.0182805 0.0345664 0.0352799 0.0325829 0.000478857 -0.0672347 -0.0513154 0.00780652 0.0180213 0.160918 -0.00490871 -0.00401321 0.157835 -0.0988209 0.13693 0.0178401 -0.0279166 -0.00439828 0.107313 0.0319652 0.0488018 -0.106633 0.0279005
contested 0.07649 -0.168077 0.0301553 -0.0401823 0.00519401 -0.000627854 -0.0520726 0.0504914 -0.0414967 -0.165804 -0.0484783 0.0165423 0.147385 0.00749858 0.113818 -0.0195968 0.0102893 -0.0141157 0.0944481 0.00969352 -0.0236582 0.0421732 -0.0367925 0.038838 0.0314369 0.0247668 0.0796057 0.094616 0.113324 -0.0586666 0.0674864 0.0453504 0.0500921 0.026526 0.0026526 0.0410678 -0.0666253 -0.0354114 -0.0139682 0.0308097 0.146044 -0.045701 -0.084297 -0.00776908 -0.0837356 0.0153784 -0.0507042 0.012293 -0.00874357 0.018425 0.113425 0.091013 -0.0804795 -0.0332291 -0.00336627 0.0344043 -0.0854448 -0.00702504 0.143604 -0.0111706 -0.100052 0.0379282 0.0709488 -0.0838059 0.0975799 0.0702759 0.056381 -0.115983 -0.0204304 -0.0429225 -0.000920523 -0.0781737 0.00221619 0.0889342 0.0418589 0.0238268 -0.136899 -0.0597494 -0.0354368 -0.077815 0.0682341 -0.06037 -0.0297105 0.00351446 -0.125854 0.113461 -0.135768 -0.0374789 -0.107623 0.137305 0.10481 0.0486278 -0.0568612 -0.126489 0.0535084 -0.0543946 -0.025088 -0.112541 0.103488 -0.00463393 -0.070555 0.126924 -0.115701 0.0748601 0.0474128 0.103225 -0.0960593 -0.060874 -0.0366139 -0.097736 0.0863047 -0.109102 0.00802047 -0.0689718 -0.0503746 0.0209201 -0.0590422 -0.0523202 -0.0600115 -0.086314 -0.10096 -0.0876947 0.0524138 0.0609211 -0.020708 0.00197609 -0.0042485 0.0553845 0.0292655 -0.0357578 -0.00774236 0.113289 -0.112971 0.0198997 -0.0317586 -0.0235049 0.0836052 -0.0584597 0.0831956 -0.0458324 -0.0297891 0.0126317 0.0258461 0.0657168 -0.0221842 0.0526277 0.0410852 0.0067536 -0.102754 -0.0685437 0.0483098 0.0207101 0.0647622 0.101358 0.0596046 0.097703 -0.106419 0.0253755 -0.089797 -0.0506569 0.0157416 -0.00817034 -0.0994416 -0.0764186 0.0128925 -0.0674452 -0.0373147 0.045328 0.0472452 -0.0315289 -0.0798181 -0.10946 -0.00720811 -0.0401035 -0.0213903 0.101069 0.0348973 0.05638 -0.0239802 0.0659032 -0.0554234 0.0820439 -0.010791 0.0198132 -0.0638965 -0.0886787 0.0404422 0.082617 -0.0500741 -0.0993351 -0.07892 -0.14859 -0.127972 -0.158131 -0.0554853 0.0793302 -0.0477554 -0.0520099 -0.00653236 -0.0235804
immigrant 0.0123435 0.06023 -0.0500583 0.115545 -0.108616 -0.083583 -0.0566074 -0.0466727 -0.119467 -0.0752461 -0.0208974 -0.0475309 -0.0152828 -0.0578324 0.00448295 0.0165757 -0.0150999 -0.080553 0.0129208 0.100879 0.0339132 0.0374083 0.0577992 0.0662791 -0.000286584 -0.103501 0.115599 0.0772055 -0.0520566 0.0242295 -0.0274539 -0.0968773 -0.0353837 0.0481237 0.042683 -0.209205 -0.0328414 0.0229179 -0.0288177 -0.117074 0.015319 -0.0296391 0.0509084 -0.0827679 -0.157279 -0.000347228 0.00241156 -0.00163165 -0.0216435 -0.065926 -0.0714275 -0.154008 0.0191482 0.0417456 -0.122752 0.00593379 -0.0936498 0.0540614 -0.0847393 0.0814008 0.0348617 0.050333 -0.0430225 -0.113204 -0.179434 -0.116085 -0.0250122 0.00223905 0.00429283 0.0504321 -0.0795624 0.0356227 0.0568676 0.032374 0.0301229 0.0067847 -0.0321257 -0.0773423 0.028511 -0.0817174 -0.139782 0.0274758 0.0460479 0.00803076 0.00962343 -0.0620427 -0.0145567 -0.0744595 -0.0210973 0.0485931 -0.0462223 0.0927606 0.0459027 -0.0861748 0.0619184 0.0531554 -0.0766921 -0.0348082 -0.129758 -0.0730832 -0.0090758 0.02047 -0.0758028 0.0272569 -0.0632369 0.0977199 -0.0143941 -0.0443217 0.0741382 0.0756453 -0.0343149 0.0834248 -0.0992769 -0.121829 0.00565834 0.0326577 0.0385934 0.041312 0.0396719 -0.140404 -0.0434994 0.108356 0.027183 -0.18563 -0.0779156 0.048734 0.0416528 0.00549468 0.0432635 0.0601505 -0.0827245 0.0331859 -0.056465 0.00102461 -0.089499 -0.117008 -0.0283194 0.0213749 0.020073 0.118205 -0.0220794 0.0777303 0.0367605 0.082892 -0.0816642 -0.0751778 0.0416067 0.0109931 -0.0585556 0.0316441 0.151891 -0.0195259 0.0125424 -0.0620417 -0.0667609 0.0569106 -0.0878406 0.104547 -0.0364334 -0.0938425 0.0669533 -0.0287989 0.0970647 -0.0388089 -0.037462 0.0192899 0.0686198 -0.190098 0.0116337 -0.0450456 0.0159862 0.0683898 0.0306148 -0.0266167 0.219718 0.014982 0.0234978 0.0738031 0.00346109 -0.049458 -0.0479757 -0.0162089 -0.10014 0.0240561 -0.0835676 -0.0601021 -0.114267 -0.000178808 -0.00706858 0.117173 -0.000968895 -0.0313597 0.0116063 0.115746 0.00118269 0.00635812 -0.0358635 0.0126102 -0.0441242 0.0193615
prospective -0.0605028 -0.154218 -0.0471227 0.0410274 -0.0409095 0.101688 -0.0230037 0.0414431 -0.0467736 -0.173245 -0.0126393 -0.0917196 -0.0092635 -0.0968835 -0.0829592 -0.0691833 -0.067781 -0.000511011 -0.041874 -0.0187656 0.0550752 -0.00348689 -0.0539496 -0.0271746 -0.0576195 0.0740499 0.0865774 -0.0451283 0.0856772 0.0502181 -0.0567258 0.0558499 0.0696839 0.0626166 -0.0315917 -0.0208309 0.0286908 -0.0237523 0.0606902 -0.119185 0.141769 0.0761903 0.0548306 0.0107552 0.0190588 -0.0377088 0.0250227 0.0949528 -0.0297089 -0.0359021 -0.0137885 0.0316808 0.0871929 -0.040679 0.100158 -0.0554614 0.050113 -0.0573496 0.0702333 -0.043731 0.138726 -0.0600864 0.0417337 0.0326768 -0.0154102 -0.0972235 0.000444474 -0.0892891 -0.0603532 0.0586341 0.0317401 0.0242166 0.0918358 -0.102629 -0.0780676 0.0479783 0.0133498 0.00451811 0.0164186 -0.0835933 0.0510759 0.109768 -0.0285655 -0.0156087 0.103912 -0.0486772 -0.0620749 0.0060428 -0.0308377 -0.0610814 0.044469 0.114164 0.0734884 -0.0839996 0.0523556 0.0883769 0.0803558 0.108352 -0.0707492 0.0632017 -0.128172 -0.0411473 -0.0183203 -0.135101 0.0526244 -0.0033264 0.0360561 0.00624852 0.0420607 0.0783161 0.0919509 0.120592 0.0119635 0.0508506 0.101781 0.137527 -0.089229 -0.0814167 -0.0980361 0.0311578 -0.0730828 0.142073 0.0168821 0.0524501 -0.0920614 -0.0317354 -0.0127337 -0.0154724 0.0984404 0.158256 0.00545536 -0.178773 0.0306979 0.0549446 0.0298395 -0.0316593 -0.0754945 0.075211 -0.138593 0.0509118 0.0581166 0.0123719 0.00998694 0.0059062 0.0386526 0.0341118 -0.00888783 0.0730064 -0.111182 -0.00321045 0.0811142 0.0385902 -0.0892817 0.00875572 -0.135883 0.12581 0.0730425 -0.0292835 0.00130765 -0.0340544 0.104363 -0.0278323 0.141142 -0.00848019 0.133553 -0.0368775 0.0925839 0.0476238 -0.0565131 0.0974031 0.0208961 0.0189752 0.0758152 -0.106393 -0.0583138 0.00949376 0.0740841 -0.0998564 -0.0611065 -0.0783321 -0.0406378 -0.0139057 0.0126952 -0.0217917 0.0301535 0.0402147 -0.112518 0.0254604 0.0903302 -0.103806 0.0663151 -0.0216968 -0.0340208 -0.0344467 -0.0454619 -0.028604 -0.0323304 -0.141556 0.0175461 0.0446134
fragile -0.0631101 0.0100463 -0.0205859 -0.0155272 0.0158343 -0.0318923 0.0229187 -0.0448018 -0.0959587 0.0456664 -0.014431 -0.11214 0.021722 -0.000805864 0.0699169 0.0688768 0.0158917 0.0580027 -0.0875967 0.00333053 0.0250906 0.0671573 0.0267365 0.0187025 -0.0985021 0.0421652 -0.0741946 0.119222 -0.112822 0.0649826 0.0869816 -0.114413 -0.0153984 -0.0722919 0.0390071 -0.140468 0.0826544 -0.022582 0.0370857 0.0395852 -0.111155 -0.141887 -0.0795056 -0.0070327 -0.0357733 0.0475318 -0.132284 0.0609977 0.140631 -0.0704113 -0.140388 0.057877 -0.0279423 -0.0499933 0.0422776 0.0114853 0.0867186 -0.0102496 -0.0125835 -0.096257 0.0466114 0.0815735 0.0308913 0.0749501 -0.116383 0.071373 -0.0426186 -0.0100253 -0.0377463 0.0778751 -0.0500093 0.050102 -0.00703172 0.0141109 -0.178291 0.0959732 -0.0146034 -0.0540319 0.133922 -0.0168905 -0.118996 -0.0827035 0.116103 -0.024224 0.0720177 0.152635 0.00358553 -0.0427542 0.0270529 0.122808 0.0261141 -0.0154374 0.12967 0.0360073 -0.0527268 -0.0481455 0.0998897 0.112079 -0.0280288 -0.0407033 -0.0499598 0.0909201 -0.0103535 0.0510945 -0.0317632 0.0451171 -0.032554 0.0172231 0.0474699 0.0551097 0.0347526 0.00374949 0.0918937 -0.0453328 -0.00542687 0.0752845 -0.0964595 0.136259 -0.0379059 0.0715697 -0.0933454 -0.0959084 0.0476457 -0.101997 -0.0108803 0.154657 -0.112152 0.0194048 -0.147668 0.00455387 -0.0649447 0.0124721 0.0231416 0.107226 0.0215066 -0.0662646 0.0356407 -0.109498 -0.0453575 -0.0465445 -0.121239 -0.029605 0.119618 0.0411863 -0.0421103 -0.0932276 0.0105041 0.0576102 0.0371505 -0.146939 0.0102331 -0.0516452 0.147304 -0.0725301 -0.0655418 0.000315894 0.136664 -0.0318448 0.00280532 0.0200596 -0.0103361 0.0475612 0.043286 -0.0426384 -0.0190795 -0.093083 -0.0287244 -0.0357233 -0.035921 -0.0826391 -0.0329876 -0.0016834 -0.01545 0.0632581 -0.0919356 -0.00372839 0.0127779 0.0334033 -0.0584912 0.0888222 0.0636324 0.0560535 -0.0171963 -0.0380898 -0.0720333 -0.0770836 0.0575956 -0.0110405 -0.118782 -0.0394377 -0.10747 -0.0193153 -0.0630471 0.0392897 0.0452542 0.121544 -0.0426305 -0.0340968 0.0203368 -0.0682696
total -0.0290414 0.0395361 0.0689149 0.023854 0.0480943 0.0484877 0.0523332 0.0244727 -0.0405645 0.0786041 -0.122016 0.143065 0.0143088 -0.0365814 -0.0846758 -0.034773 0.141404 0.0615202 0.101224 0.0475293 -0.145743 0.119688 0.0275373 -0.052036 -0.0475348 -0.0367629 0.0486792 0.0331478 0.0894632 -0.0444465 0.0713237 0.0546783 -0.168485 0.0600272 -0.0965012 0.176191 0.0992125 0.0366982 -0.0604471 0.0255554 0.0245121 -0.0103506 0.00866661 0.0316165 -0.06599 -0.00221348 0.0470959 -0.016503 -0.020763 -0.010899 -0.0273398 0.0449659 -0.112328 -0.0193886 -0.173586 0.0668605 -0.0401475 0.0786874 0.175423 0.00837672 -0.107678 0.0386625 -0.0593608 0.0518397 0.0587702 -0.00907559 0.103976 -0.0348124 0.0502248 0.0155684 -0.0218521 -0.0434284 -0.00630222 0.144776 0.0501847 -0.0385422 -0.00814814 -0.0372624 0.012478 -0.0420695 -0.0234908 0.0929589 0.0352799 -0.0797917 -0.0681695 -0.0413935 0.034494 -0.0683305 -0.0830619 0.0134928 0.0531977 0.0287722 -0.0768375 -0.0261296 -0.0313046 0.12504 0.140095 0.0406818 -0.0483622 -0.0111844 0.0450608 0.0877286 0.0107347 0.1246 0.0745874 0.0351637 -0.0517297 -0.04367 -0.100987 -0.142372 0.0106804 0.151192 0.0721472 0.117546 -0.0251853 -0.0763927 0.117681 0.192982 0.084782 -0.000163139 -0.0980595 0.0642297 0.0650591 -0.00860611 -0.0013631 0.06949 -0.0409254 0.0174565 0.0145406 0.127303 -0.04235 -0.0551158 0.0203878 -0.0462576 0.0336446 -0.0449956 -0.0546556 0.0836993 -0.0173725 -0.00344846 0.0874138 0.0877067 0.0146457 -0.0908939 -0.00243236 -0.0283484 -0.077669 -0.114332 -0.0380854 -0.0452397 0.0524261 0.062372 0.046974 -0.0462202 0.0433657 -0.00125257 0.0693731 0.0343284 0.0857505 0.0344216 -0.150676 0.0198441 0.0287233 -0.0532536 -0.00223208 0.00914474 -0.0579831 0.0413865 0.130277 0.022221 -0.0880041 0.0160518 0.0639693 -0.0662153 0.0276682 -0.1072 -0.0126468 -0.170707 0.0205799 0.049759 -0.0297065 0.0293081 0.0925776 -0.0326563 -0.0358336 -0.0852696 0.0188417 -0.00603959 -0.0680848 -0.140155 0.0222134 0.0127152 -0.0920979 -0.0351967 0.0528111 0.0241352 -0.0217055 0.02664 0.032922 -0.0892006
inflationary 0.0753261 -0.0595394 0.17059 0.00230463 0.0540144 -0.0894201 -0.0999326 -0.0517813 -0.0070037 0.0457891 -0.0754129 0.0981958 0.0380915 -0.03737 0.125827 0.08809 -0.0364266 -0.0147027 -0.0701475 0.0774712 -0.0613802 -0.0361759 0.0872021 -0.069486 0.0196187 -0.0983417 0.0624471 -0.0775985 -0.0145199 -0.0367513 -0.114487 -0.0248066 0.0458796 -0.0376711 0.0179165 -0.00577908 0.0250114 -0.0590448 0.175334 0.114367 0.043807 -0.116914 0.0427355 -0.117212 -0.0482619 0.0338855 -0.109983 -0.0415678 -0.0436803 0.00574648 0.0670146 0.067469 -0.151599 0.0189891 0.11971 0.0280982 -0.121312 -0.0516736 -0.109342 -0.120071 -0.0877798 -0.0228177 -0.0293114 -0.0547927 0.039629 -0.102583 -0.0334548 0.000785733 0.0526286 -0.029331 0.071134 0.0714072 0.133077 0.118677 0.0889531 0.00284482 0.0252101 -0.0698531 0.0107182 -0.0909225 -0.0755991 0.00340609 0.0645452 0.0489918 0.0716251 0.0210444 0.0267683 0.0497675 0.0233046 -0.0280763 -0.0636667 0.161936 -0.00157407 -0.0604884 0.00224865 0.0755817 0.155316 -0.0257331 -0.0117216 -0.0978248 -0.00425899 0.124232 -0.0680803 -0.0733124 -0.0119832 0.0167025 0.0141041 -0.0893591 0.00165362 -0.00361686 -0.0534827 -0.0188246 0.0294185 0.0795202 -0.0925972 0.0333565 -0.0596207 -0.0539431 0.037915 0.0455328 0.024632 0.0725769 0.0088303 -0.0712742 -0.0355058 -0.0969701 -0.111658 -8.69858e-05 0.0137142 -0.0153067 -0.0103289 0.041196 -0.0579535 0.0254899 -0.0295929 0.123205 -0.103869 0.0675135 -0.0732522 -0.021291 -0.0330558 -0.0407593 0.0398369 0.091179 -0.0952915 0.0218001 -0.0309136 -0.015541 0.0603078 -0.0197976 -0.0803974 0.0361079 0.0349266 -0.0612823 0.0930272 -0.0195426 -0.0568371 0.072507 -0.0258883 -0.00744157 -0.118249 0.111608 -0.0482746 -0.0297301 -0.0264463 0.0839534 0.000436005 -0.0914643 0.0449102 -0.0196245 0.0692666 -0.0268679 0.0916943 0.00218758 -0.117568 -0.128599 0.0697204 -0.131215 -0.0747598 -0.0669621 -0.111323 0.0380126 0.128 0.0332217 0.0910932 -0.185898 -0.0243392 -0.0367707 0.0195989 0.0768206 0.082138 -0.035967 -0.00336563 -0.0210336 -0.0112044 0.00618006 -0.0141576 0.0355221 -0.124102 -0.11613
settled 0.000775794 -0.0296245 0.107674 -0.00305799 -0.0299824 -0.0351807 0.0969381 -0.0365335 -0.00624946 -0.0691929 0.00104378 -0.0434526 -0.0327262 0.0140889 0.0965589 -0.0179259 -0.000460453 -0.0714799 0.108957 0.05173 0.0691987 -0.0266094 -0.128029 0.170556 0.052784 -0.0191372 0.105916 -0.0404133 -0.0825448 0.0835423 0.0251938 0.064329 0.0122351 -0.0597684 0.00749918 -0.0389529 -0.0869458 -0.0415581 0.0457084 0.116695 0.110605 0.187811 0.00362294 -0.0790673 0.0233875 -0.0424849 -0.0299742 0.0482382 -0.0885134 0.0379276 -0.0127441 0.0812597 -0.0331517 -0.0845923 -0.00417485 0.12412 0.0901301 -0.00718078 -0.0199347 0.104262 -0.0642304 -0.0972021 -0.00674573 0.0227448 0.12529 0.0800135 -0.147774 0.151057 0.0494321 0.109583 -0.00848646 -0.00937754 -0.0921942 0.00625464 -0.0402653 -0.100836 -0.0900073 0.136734 -0.0594664 -0.0153989 -0.0088212 0.0868657 -0.0213107 -0.0584216 0.00965114 -0.090381 -0.0334254 0.0486185 -0.0172213 0.165319 -0.187635 0.0529527 -0.0209725 0.0493891 -0.0730755 -0.0650327 -0.048909 -0.0489018 0.115367 0.026949 0.145349 -0.0352424 -0.0527192 0.0742943 0.0626886 -0.0897907 -0.00755156 -0.0497677 0.0785147 -0.0528575 0.0274204 0.00662369 -0.0486421 0.05615 -0.156272 0.0371467 -0.00232781 -0.0659016 -0.0383102 -0.0780308 -0.0700596 0.0423086 0.129 -0.0884626 -0.0355071 0.0276963 -0.00920418 0.0628377 0.040093 0.0321358 0.0310567 -0.111343 0.0703399 -0.00174764 0.00940023 0.0239919 -0.068296 -0.0342668 0.124334 -0.0108707 -0.0598173 0.101165 0.0878506 -0.044752 0.0298125 -0.19152 -0.0315473 0.0494463 -0.0444978 0.014843 -0.0444406 0.100764 0.0792923 0.0582701 -0.0549178 0.00893676 0.00329291 -0.144454 -0.0351759 -0.0538922 -0.0500867 0.107304 0.0874023 0.0683813 -0.0358434 0.0266374 -0.126483 -0.00502449 0.0108112 0.0035831 -0.0315324 -0.0165188 -0.0512725 0.0426901 -0.0266397 -0.0401895 0.00509977 0.0264295 -0.0040905 0.0369154 -0.0205713 0.0631605 -0.0540697 0.0124442 -0.0181905 -0.0776347 0.017652 -0.123305 0.0542193 0.0419476 -0.138433 -0.0692153 0.016028 0.0677015 0.0551573 -0.082783 -0.0893572 0.0419011 0.0636796 -0.0139765
digitised -0.137637 0.0804971 -0.0961411 0.0236685 0.0511794 -0.00400451 -0.0211297 0.0341635 -0.0366267 -0.0465144 0.151697 0.124306 0.158401 -0.0585733 -0.0727582 0.147402 0.0909891 0.108201 -0.0775282 -0.0353683 -0.0611306 -0.0701894 -0.0425649 0.0281636 -0.141373 -0.14603 0.0933172 0.0569795 0.0247432 -0.108456 0.0365895 -0.0492577 -0.0457938 -0.0701461 0.0404921 -0.0755547 0.0724261 -0.0513241 0.0623107 0.0410401 0.000612088 0.107887 -0.00276784 -0.119365 -0.00617963 -0.0124632 0.0188626 -0.0610896 -0.0779356 0.0751286 -0.0256318 0.0652952 -0.0677008 0.00914 -0.024892 -0.168197 -0.0517404 0.0844437 -0.134977 0.0727635 0.00145623 -0.0135283 0.0509869 -0.0350038 -0.0195448 0.0137159 -0.131972 -0.016805 0.120356 -0.0684473 0.0989701 0.050529 -0.0518838 0.110009 -0.162815 -0.0776654 0.0981512 0.00228732 0.065648 -0.0503048 -0.0296023 0.078115 0.154255 -0.0453113 -0.0561044 -0.00718899 -0.000904696 0.115401 0.0271789 -0.0435912 -0.00876511 -0.031343 0.046202 -0.121694 0.0160446 -0.117196 0.062636 -0.0990599 -0.0971722 -0.101517 0.111509 0.0414357 -0.0362038 -0.0634627 -0.058947 0.0302286 -0.0607087 -0.0960804 0.0352138 0.0391584 0.0317322 -0.0133986 0.0287 0.0738766 0.0060896 0.167371 0.0246989 -0.0171013 0.104902 0.00263098 0.0183071 -0.0961896 0.0265186 0.0154026 -0.0166827 -0.0777751 -0.0483896 0.0323109 0.069734 -0.0480184 0.13567 0.0489964 0.0598032 0.0998642 -0.00173824 0.0481447 -0.0491771 0.0318954 -0.0519514 -0.0085545 -0.0195574 0.00460396 -0.109098 -0.0358711 0.0158068 -0.100808 0.0428562 -0.0779079 0.0023199 0.093309 0.066636 -0.0663147 -0.0219255 0.0335297 0.0455694 0.00583783 0.075391 -0.0336163 -0.0958007 -0.0250273 -0.0200023 -0.0304816 0.0181686 0.0561979 0.0294797 -0.0707635 -0.0196988 -0.0807131 0.0641678 -0.0760847 -0.0164334 -0.0413902 -0.0946757 -0.0633139 -0.0352654 -0.0743268 0.00244503 -0.0309715 0.00805289 0.0152346 0.079401 -0.068153 -0.0401011 0.099553 -0.10507 0.0646614 0.0534428 -0.0939365 0.00606214 -0.0870405 0.0139995 0.154361 0.0511867 0.0333263 -0.0287289 0.0102362 0.0349847 0.113013 0.0353138 -0.00168962
bulgarian 0.0229875 0.0577167 0.036422 -0.0218932 -0.0621321 -0.0332214 0.0630735 0.0675978 -0.0984183 0.0163548 0.0272496 -0.0970635 0.0289804 -0.0376749 -0.0817645 -0.140972 0.0429134 -0.0834472 -0.0553521 0.026959 0.0670702 -0.0379117 0.0448765 0.124017 -0.126349 0.0411802 0.114768 -0.0458395 -0.0125228 0.00878409 -0.15309 -0.0361514 -0.0831721 -0.0379981 0.0283952 -0.102245 -0.152816 -0.00044938 0.0266328 0.085889 -0.040582 0.189437 -0.115717 -0.0242207 0.0222273 -0.115583 -0.0637499 0.0714418 0.0559207 -0.0479804 -0.13725 0.0422191 -0.10078 0.0570033 0.0351823 0.0933343 0.13884 -0.116759 -0.0262218 -0.0765056 0.00919902 0.0521499 -0.0932686 0.0725886 0.0203273 0.0712144 0.0884286 0.0077304 0.0158999 -0.061325 0.0618136 -0.111956 -0.0810144 0.065527 0.0797417 0.0242294 0.0224443 -0.0448057 -0.018294 0.00788601 -0.112788 -0.0306503 -0.117475 0.012501 0.0851456 0.0215578 -0.0470493 0.0423246 0.0281528 0.0794327 -0.0867757 0.00581778 -0.0413494 0.00907946 0.00404289 0.0210769 0.0827298 0.0403173 -0.0128936 -0.00312832 -0.0486018 0.16165 0.0630956 0.015611 0.0190304 0.0463929 -0.025346 0.041231 0.0698435 0.00913196 0.150803 0.0324183 -0.041391 -0.0771188 0.0911532 -0.00130931 -9.12274e-05 -0.0590508 0.0581985 -0.0331109 -0.0823533 0.00082259 -0.0703517 0.0455319 0.00603587 -0.00626396 0.00281279 0.0149537 0.0280359 0.117954 -0.138774 -0.114103 -0.0166888 -0.0439309 -0.00460753 0.18226 0.0508364 -0.0559647 -0.0822398 -0.120739 0.136559 0.0909826 -0.00574446 0.050584 -0.0532384 -0.0840669 -0.00756365 -0.0841439 0.0196076 0.0843225 0.0195332 0.113073 -0.0256825 -0.0564149 -0.0609643 -0.043572 0.0538389 -0.130969 0.0530685 0.110305 -0.0700539 0.0272645 0.0135387 0.0163204 0.0320374 0.0727111 -0.0480529 -0.040559 0.0423495 0.108945 0.0980583 -0.0993008 0.0106563 0.0807115 -0.120164 -0.0288161 -0.0193281 -0.00516919 0.0480475 -0.0368855 0.0429305 -0.0663753 -0.0963612 -0.0174188 -0.126358 -0.0716732 0.00395549 -0.00893758 -0.0737077 0.042986 -0.083049 -0.0578105 -0.143369 -0.022163 -0.0193898 -0.0168561 0.0743703 -0.0233743 0.0385633 -0.0510886
inside 0.0175681 -0.0189131 0.00380999 0.0449048 -0.151763 -0.0752799 0.0230697 0.0755233 -0.0394945 -0.0902172 0.0888767 -0.0506487 0.0428616 -0.121206 -0.0365515 0.00894663 -0.00810834 -0.0403358 -0.0596973 -0.0486493 -0.0151236 0.040258 0.023746 -0.0755068 0.0331703 0.104931 -0.0291251 0.0331366 -0.0696964 0.00676016 -0.0404746 0.0879351 -0.0704699 -0.0647356 -0.0267742 0.0746375 0.0438758 -0.0939322 -0.0170882 -0.0437912 -0.0339972 -0.0574047 -0.0806018 -0.0184923 -0.00386441 -0.0530033 0.0918071 -0.0516024 0.0744368 -0.0363542 -0.137095 0.0132715 -0.0822665 -0.0476961 0.0421347 -0.0948821 -0.0202826 0.0231885 0.0295544 -0.0136558 -0.05609 0.0662985 0.0208112 -0.0453773 -0.123113 -0.0349177 0.0209811 0.0276497 -0.0718601 0.0422994 0.0230023 0.0102432 -0.00264097 0.0385682 -0.0522876 -0.0695765 -0.0550825 0.0665102 0.00650883 -0.0510897 -0.0421166 -0.0730518 -0.0117209 0.0132075 -0.00220167 -0.0245149 -0.107862 -0.00772585 0.106328 0.0413918 0.0300365 0.105319 0.0578454 0.0479536 -0.143562 -0.0265933 0.0306581 -0.119454 -0.0612996 -0.147788 -0.0967613 -0.0453552 -0.0521538 0.126373 0.00465383 0.00479382 -0.0891567 0.107397 0.0107876 0.0306156 0.0477513 -0.0428388 -0.0207062 0.0403875 0.0987332 -0.00391237 -0.0509962 -0.0167358 -0.0496082 0.202938 -0.0690151 0.123861 0.0180775 -0.0699659 -0.0299176 0.0649703 -0.0774512 -0.0841749 -0.0928737 -0.0513669 -0.0518681 -0.0196741 -0.00524689 0.00679308 -0.0474942 0.153582 0.12696 -0.0588221 0.0265922 -0.124124 0.0435894 0.0056958 0.0309842 -0.117264 0.107519 0.144757 0.0753712 -0.0339801 0.00378854 0.0531948 0.0569513 0.00379347 -0.00692972 0.0844211 0.0222444 -0.124554 0.0467915 0.0317807 -0.128774 -0.109755 -0.0216315 0.1412 -0.0111872 -0.111744 0.0580246 -0.043057 -0.096773 0.0451394 0.0598755 0.111353 0.0302809 -0.119245 0.0170935 0.120217 0.0101917 -0.148488 -0.0142474 0.0244691 0.0637507 0.0545149 0.0696772 0.0737114 0.0371923 -0.0583479 -0.0291569 -0.0918601 0.0630356 0.00977644 -0.0490318 -0.0985211 -0.158179 -0.000558463 0.159841 -0.174792 0.00018219 -0.0766252 0.063471 0.0177498 0.0411976 -0.0567241
our 0.0505034 0.000328367 -0.0643504 0.0118473 0.0795667 -0.0378978 0.047696 0.0446595 0.077123 -0.0271457 -0.0440496 -0.052887 -0.0695055 0.0317204 0.0635772 0.0407759 -0.0686858 -0.0856622 0.0522638 0.126971 -0.0169862 -0.0881865 0.185231 0.0411712 0.0824898 -0.0322914 0.150056 0.0997207 0.0683231 -0.100745 -0.0566645 0.0138799 0.0771033 -0.0543448 -0.0964106 -0.0699212 -0.0453342 0.122276 -0.0325088 0.0315457 -0.173072 0.0979928 0.0824516 -0.0656825 -0.0688032 0.0363822 -0.00759984 -0.0848028 -0.0777759 -0.101986 0.0506395 0.0544058 0.0359506 0.0291736 -0.0248254 -0.0958293 -0.0234528 0.0640256 0.0687446 0.00391968 -0.139423 0.0500858 -0.0216888 0.0121471 0.00406501 -0.0453374 -0.0523062 -0.0108254 -0.0951593 -0.0167834 0.000911659 0.0697855 -0.0986475 -0.00241128 0.0687532 0.0315138 0.0332791 -0.0925513 -0.0210853 -0.0211674 -0.127103 0.0183479 -0.0118531 0.0275993 -0.0391432 -0.012393 -0.0557067 0.0548797 -0.0738528 -0.0583537 -0.203819 -0.0425962 0.0447208 -0.0249937 -0.000574517 -0.0586512 0.0414386 0.0776293 0.100018 -0.0512365 0.00229835 0.0614142 0.000522254 -0.0136484 -0.156829 -0.00915969 -0.0788695 0.00233603 0.0195022 0.166133 -0.1041 -0.0179708 0.0223664 -0.127229 0.01048 0.112398 0.0563593 0.0020539 0.100243 -0.0340789 0.0213739 -0.0248639 0.00293844 0.0753847 0.0684419 0.00930958 0.0387385 0.0127645 0.0348914 0.108609 0.0573995 0.0403949 -0.00498082 -0.0828922 -0.0304079 -0.210696 -0.0636707 0.00917573 0.0623412 -0.0603362 -0.0431288 0.0250553 -0.02805 0.048068 -0.0293096 0.0428992 -0.0128963 -0.0887895 0.0711626 -0.092893 0.0505971 0.0079807 0.00436708 -0.0240348 0.058728 -0.0851473 0.117852 0.0822819 -0.0225111 -0.0555386 -0.18627 0.0703781 -0.015213 -0.0146092 -0.0840146 -0.07109 -0.00162598 0.117278 0.0288211 0.0541608 -0.0184802 -0.0875954 -0.0416196 -0.0378037 -0.02603 0.00284713 -0.0932652 0.0472751 0.0115766 -0.105792 -0.0328463 -0.0703151 0.09029 0.114151 0.00255029 0.119386 -0.0712146 0.0806716 -0.109405 -0.0977143 0.074759 0.0190757 0.100699 0.00229834 0.0566196 0.11145 -0.0605664 0.0794496 -0.0208505 0.0454412
deep -0.0595111 -0.0967028 -0.0289307 -0.119646 0.00319506 -0.0415916 -0.0377969 -0.0492038 0.0372606 0.0817956 0.0113907 -0.0418568 -0.0717362 0.0364192 -0.07992 0.0128903 -0.0703212 0.00599634 0.00479847 0.200323 0.0724824 -0.0266431 -0.0200598 0.142161 0.00212037 0.0211907 0.0592746 -0.00485568 0.0623508 0.061803 -0.177198 0.0242154 0.131976 -0.0296228 -0.0949231 -0.0309725 -0.155184 0.0736846 0.0490355 0.0554811 0.0697803 -0.00865582 0.0165971 0.0689493 -0.170352 -0.0668339 0.0592257 0.0648512 0.0061605 0.0638675 -0.0175492 -0.0421991 -0.0832166 -0.0879674 0.0445312 0.00311683 -0.0431995 -0.0750343 0.083754 -0.041992 -0.112026 0.116943 -0.098725 0.0430424 0.10004 0.0425636 0.0608069 -0.0650231 -0.00910707 -0.00622308 0.0738181 -0.0771477 0.0227657 0.028468 -0.0971579 -0.0343154 0.0491091 0.096803 -0.0430958 -0.0436501 -0.0113433 0.0346817 -0.0167897 0.0288247 0.100561 -0.0614892 0.0545448 0.00176488 0.0351369 0.0449637 0.0807391 -0.117134 -0.0132601 0.0725019 -0.11658 0.101284 0.0534305 0.0179235 -0.0313999 -0.0333037 0.119128 0.0106483 -0.0830534 0.0175612 -0.0136283 0.15138 0.133142 -0.0263332 -0.0944871 0.0874127 -0.0355324 0.0196197 -0.0403164 0.00246942 -0.0676771 -0.0720431 0.0190246 0.111767 -0.0394725 -0.0427455 0.0448544 -0.0217927 0.0456998 0.109334 -0.148528 0.028253 -0.0670946 0.0805898 0.191837 0.0670318 0.0175824 -0.0658389 -0.0682288 0.0389404 -0.0115839 -0.111042 0.0853895 -0.00488217 0.0186345 0.0123153 -0.0912229 0.00639729 0.0528616 -0.0129029 0.00933435 -0.0227241 -0.0402074 -0.0180197 0.0256652 0.00789206 -0.143267 -0.162588 -0.0422629 0.0185023 -0.0258626 -0.0054617 -0.0174769 -0.0115576 -0.00380182 0.00293224 0.0736966 0.0278174 0.0681603 -0.097173 -0.0183069 0.0790898 -0.0217892 -0.0267443 0.060206 0.01055 0.0485038 -0.0507465 0.0311569 -0.0258955 0.0258524 -0.0730335 0.0190519 -0.0899034 -0.0984315 -0.02843 0.146527 -0.192795 0.0322888 0.135568 0.0263827 0.00219084 -0.0103597 -0.0219137 0.00745699 -0.0221964 0.0284485 -0.0300406 0.0883016 0.117547 0.112573 -0.0296298 -0.0706746 -0.0424733 -0.119297 0.0532796
democratic 0.00957721 0.0626291 0.0638359 -0.0182081 -0.0535775 0.0780168 -0.036576 -0.0812504 -0.124125 0.110419 0.0512804 -0.0129755 -0.0687032 -0.0782658 0.030718 -0.0282658 -0.00850466 -0.0580453 0.0149122 0.0237195 0.00962681 -0.0353216 -0.00154218 0.035411 -0.0416592 -0.00544629 0.0439714 -0.0216663 -0.046989 -0.0398367 -0.0450177 -0.179156 0.000592841 0.0463102 0.0046398 0.11511 -0.0336715 -0.112809 -0.0620202 0.0338536 -0.154678 0.0266731 0.0736672 0.0143373 -0.118624 -0.0342655 -0.133372 0.044796 -0.00662765 0.00961032 -0.00390771 0.0632876 0.0370392 0.114521 -0.012631 0.0742537 0.0196185 -0.0157322 -0.0820709 -0.0172805 -0.00338167 -0.057039 0.090304 0.124069 -0.0177162 -0.0264867 -0.0642382 -0.057269 -0.0895445 -0.044722 0.088206 0.099273 -0.0277682 0.130242 -0.0718715 0.0142792 0.0958894 0.0903539 -0.00902996 -0.00630378 0.0438719 0.00535974 -0.0244376 -0.158052 0.0321875 -0.0200964 0.0552158 0.016614 -0.00475862 0.0469183 0.0514574 0.0245665 -0.0516447 0.0652746 0.0166202 -0.185462 0.0148783 0.0468249 0.130243 -0.0428302 -0.0403464 0.00499729 -0.124973 -0.023167 -0.110749 0.0786323 0.0310809 0.0983153 -0.0728879 -0.075397 -0.0263124 -0.0471477 0.0769565 -0.024793 -0.0181506 0.0171447 -0.133605 0.06394 -0.0530304 0.0812391 0.0688411 -0.000333983 0.0181752 -0.0843329 0.0489758 -0.0145467 0.119326 0.0860682 -0.0259416 -0.109636 -0.0339006 -0.139214 -0.0518864 0.0374357 -0.0619365 -0.0365308 0.00556993 0.0255093 0.140609 0.00559419 0.00244781 -0.0124794 -0.000428045 -0.024316 -0.0850297 0.0971761 0.0886958 0.104733 0.0455853 0.0840844 0.129124 -0.00933266 0.0409232 -0.0173982 0.0794716 -0.0416407 0.21515 -0.117132 -0.0644465 0.0105712 -0.0932643 0.0755456 0.0450726 0.0177594 -0.0217162 -0.146503 0.0126195 0.0757987 0.0541251 -0.0712309 0.0684776 0.117033 -0.104914 0.0119219 0.112252 0.133907 -0.0633715 -0.0484533 0.0112963 0.0399825 0.0131617 0.0263929 -0.030168 0.0753369 0.0569426 0.0847933 -0.0566526 -0.0321051 -0.0126549 0.0587815 0.0630196 -0.0292629 -0.090359 -0.0503136 0.172725 0.0693744 0.0869043 0.0351158 0.0804184 -0.00767336
unlawful -0.0250066 0.0174055 0.068665 0.0707994 -0.0264373 0.0452668 0.0975415 0.0132451 0.051259 0.108437 -0.000838112 -0.0282848 -0.0895665 0.08223 0.0225766 -0.061377 0.0843657 -0.0179227 0.0516176 0.0369308 -0.028604 0.0496644 0.0562038 -0.0267648 0.104699 0.0416507 0.0897259 -0.0604472 -0.0947802 0.105197 0.0869853 0.0147097 0.0550732 -0.0568893 0.119756 0.0355909 -0.0229248 -0.00855125 -0.0750358 0.0479362 0.0432995 -0.0653363 0.105383 -0.0609551 0.0329037 -0.156931 0.011339 -0.00110456 0.0657243 0.0554473 0.103397 -0.0184552 -0.0341314 0.027217 0.0289243 0.0389301 0.0843143 -0.0470793 0.0343971 0.0775132 -0.11692 0.00266828 -0.0575593 0.0397535 0.0832212 -0.121475 0.0112052 -0.0480297 0.0452755 0.0342999 -0.102894 -0.0557464 0.050956 0.0750327 0.0468564 -0.00337058 -0.0530413 -0.0172137 0.101841 0.102401 0.104405 -0.15768 0.0488724 -0.011783 -0.110105 -0.0450711 0.00382214 0.0703872 0.0649964 -0.00497978 -0.0917002 0.00629865 -0.0199227 -0.0431193 0.0429007 -0.00662132 0.0265085 0.0873038 0.124845 0.0397802 -0.0110308 -0.0860933 -0.0412039 0.036933 0.013786 -0.0615516 -0.00401221 0.0297631 -0.000418069 -0.152064 0.0518116 0.0708385 0.0272498 0.0787948 -0.0241036 0.141971 -0.0749076 0.122006 0.0844939 -0.15715 0.105545 -0.0822384 -0.0772737 0.005703 0.0798071 0.052137 -0.0710969 0.0506067 0.0544505 -0.026822 0.00514286 0.16512 -0.0888582 -0.0367338 -0.0567577 -0.0941118 0.0287994 -0.0299087 0.0384612 -0.00459973 0.0326705 0.0986096 0.0419085 0.0817949 -0.00894234 0.0686718 -0.143448 0.0846022 -0.154713 -0.0485902 -0.0458856 -0.0356424 -0.0874437 0.135973 0.0833341 0.0556774 0.0705187 0.0285762 0.0734391 0.0664845 0.00576387 0.0780885 0.00177163 -0.162175 -0.0708345 0.018843 0.00802338 -0.0283832 0.0271744 0.0562372 -0.125294 0.0490857 -0.0181419 0.0711772 0.161224 0.107047 0.137089 -0.0153263 -0.0508729 -0.00536463 0.0331097 0.0117567 0.105093 0.0347959 -0.113505 0.0385585 -0.0127822 -0.0988287 0.0922526 -0.0366186 -0.0812837 -0.0911607 0.0730267 -0.000907122 -0.0517108 0.0668329 -0.00399824 0.0346739 0.035163 -0.0573459
